0.0,0.0,0.0,0.0,0.0,0.0,0.0,0.0,140.0,-702.0,0.0,-281.0,47.0,-94.0,94.0,-47.0,187.0,-1918.0,515.0,-515.0,-47.0,-140.0,0.0,0.0,47.0,374.0,281.0,374.0,-94.0,187.0,-94.0,-94.0,-47.0,328.0,-468.0,281.0,-374.0,47.0,-187.0,-234.0,0.0,328.0,-281.0,94.0,-187.0,-140.0,-94.0,-515.0,-187.0,281.0,-561.0,281.0,-234.0,-2152.0,-234.0,140.0,0.0,0.0,0.0,0.0,0.0,0.0,0.0,0.0,-94.0,0.0,-187.0,-234.0,47.0,-47.0,-374.0,-234.0,47.0,-749.0,-47.0,-140.0,94.0,187.0,-94.0,0.0,-47.0,-234.0,-328.0,94.0,-187.0,-94.0,-94.0,47.0,-234.0,-374.0,-94.0,-140.0,-47.0,47.0,47.0,-187.0,-94.0,-94.0,-94.0,-187.0,-140.0,47.0,47.0,47.0,-47.0,-234.0,94.0,-234.0,-94.0,140.0,140.0,-47.0,-140.0,-842.0,-281.0,-187.0,-47.0,-140.0,0.0,94.0,-94.0,140.0,-234.0,-140.0,94.0,-187.0,-47.0,94.0,421.0,47.0,140.0,-187.0,94.0,-94.0,187.0,-281.0,-234.0,328.0,-140.0,187.0,-94.0,47.0,47.0,0.0,374.0,-421.0,140.0,-94.0,140.0,-234.0,0.0,187.0,-421.0,0.0,-328.0,-328.0,47.0,-187.0,0.0,-281.0,140.0,-374.0,-281.0,-281.0,-281.0,-140.0,-47.0,-140.0,0.0,47.0,-328.0,0.0,47.0,-187.0,-187.0,-281.0,47.0,-187.0,-94.0,-94.0,-47.0,-281.0,-187.0,-140.0,-234.0,0.0,0.0,-94.0,-47.0,-187.0,-94.0,-328.0,-421.0,-328.0,-328.0,-281.0,-515.0,-468.0,-328.0,-655.0,-328.0,-328.0,-187.0,-234.0,-468.0,-468.0,-421.0,-468.0,-374.0,-187.0,-234.0,-187.0,-328.0,-421.0,-234.0,-515.0,0.0,-561.0,0.0,-234.0,-421.0,-515.0,-515.0,-561.0,-328.0,-421.0,-374.0,-374.0,-608.0,-374.0,-187.0,-468.0,-328.0,-234.0,-374.0,-421.0,-515.0,-515.0,-374.0,-421.0,-374.0,-468.0,-421.0,-374.0,-468.0,-281.0,-421.0,-421.0,-281.0,-328.0,-515.0,-468.0,-608.0,-421.0,-328.0,-468.0,-842.0,-749.0,-749.0,-842.0,-702.0,-515.0,-468.0,-328.0,-749.0,-795.0,-889.0,-749.0,-889.0,-702.0,-702.0,-842.0,-749.0,-702.0,-842.0,-749.0,-749.0,-795.0,-608.0,-795.0,-1029.0,-795.0,-842.0,-702.0,-936.0,-702.0,-936.0,-702.0,-468.0,-889.0,-842.0,-842.0,-1029.0,-749.0,-889.0,-842.0,-842.0,-889.0,-1170.0,-795.0,-1123.0,-1076.0,-468.0,-795.0,-702.0,-749.0,-1217.0,-1217.0,-1029.0,-1029.0,-749.0,-936.0,-1029.0,-842.0,-1170.0,-1591.0,-1591.0,-1451.0,-889.0,-1076.0,842.0,702.0,561.0,608.0,608.0,655.0,561.0,421.0,421.0,421.0,374.0,561.0,561.0,608.0,655.0,608.0,655.0,374.0,561.0,421.0,608.0,608.0,608.0,655.0,140.0,561.0,-140.0,234.0,374.0,468.0,515.0,374.0,234.0,234.0,-655.0,187.0,234.0,140.0,234.0,608.0,-140.0,-2012.0,-234.0,-1965.0,-1263.0,281.0,328.0,421.0,94.0,-936.0,-2340.0,-2199.0,-1029.0,-1076.0,468.0,608.0,-702.0,468.0,-1123.0,-1731.0,187.0,-1684.0,-1217.0,-281.0,0.0,0.0,0.0,0.0,0.0,0.0,0.0,0.0,-47.0,374.0,140.0,187.0,-47.0,374.0,328.0,608.0,187.0,608.0,374.0,608.0,94.0,0.0,-47.0,0.0,281.0,749.0,421.0,515.0,374.0,94.0,94.0,140.0,187.0,140.0,608.0,281.0,140.0,281.0,140.0,0.0,47.0,140.0,-187.0,94.0,47.0,140.0,0.0,47.0,94.0,47.0,0.0,187.0,47.0,94.0,0.0,94.0,0.0,0.0,0.0,0.0,0.0,0.0,0.0,0.0,468.0,515.0,140.0,608.0,374.0,328.0,842.0,561.0,-328.0,702.0,468.0,468.0,468.0,140.0,561.0,468.0,889.0,-421.0,468.0,187.0,234.0,-140.0,234.0,187.0,468.0,328.0,749.0,421.0,281.0,421.0,187.0,187.0,515.0,608.0,608.0,561.0,374.0,94.0,-47.0,94.0,-187.0,702.0,94.0,702.0,-47.0,234.0,140.0,234.0,234.0,140.0,328.0,-94.0,140.0,187.0,187.0,140.0,936.0,-47.0,655.0,-47.0,468.0,-234.0,94.0,655.0,-515.0,-47.0,234.0,140.0,140.0,140.0,-328.0,-47.0,328.0,-94.0,328.0,328.0,94.0,47.0,-374.0,187.0,-328.0,47.0,187.0,374.0,47.0,-47.0,47.0,-281.0,281.0,140.0,421.0,328.0,234.0,187.0,47.0,187.0,47.0,187.0,281.0,187.0,140.0,187.0,234.0,-47.0,140.0,-281.0,94.0,47.0,-234.0,47.0,-47.0,-47.0,0.0,-140.0,234.0,-140.0,-94.0,-187.0,-94.0,-936.0,-234.0,-94.0,0.0,0.0,-94.0,-234.0,-374.0,-234.0,936.0,655.0,889.0,655.0,655.0,608.0,608.0,468.0,983.0,795.0,795.0,655.0,702.0,655.0,608.0,515.0,1029.0,889.0,936.0,749.0,749.0,702.0,702.0,702.0,515.0,983.0,234.0,842.0,515.0,328.0,655.0,281.0,515.0,234.0,421.0,-47.0,234.0,94.0,47.0,234.0,515.0,468.0,234.0,187.0,468.0,47.0,281.0,421.0,468.0,47.0,234.0,234.0,328.0,47.0,468.0,561.0,374.0,328.0,234.0,281.0,328.0,281.0,374.0,468.0,515.0,561.0,1170.0,749.0,561.0,515.0,561.0,608.0,889.0,936.0,795.0,655.0,795.0,655.0,795.0,702.0,936.0,749.0,1076.0,889.0,842.0,842.0,936.0,561.0,702.0,1029.0,842.0,795.0,795.0,655.0,608.0,468.0,328.0,608.0,561.0,702.0,515.0,561.0,842.0,749.0,328.0,468.0,608.0,421.0,749.0,468.0,702.0,795.0,421.0,468.0,561.0,515.0,608.0,749.0,655.0,749.0,795.0,561.0,515.0,515.0,655.0,468.0,608.0,749.0,889.0,749.0,702.0,468.0,842.0,281.0,-94.0,-187.0,983.0,889.0,795.0,889.0,468.0,328.0,234.0,328.0,655.0,1123.0,795.0,889.0,655.0,561.0,281.0,328.0,515.0,702.0,842.0,795.0,655.0,515.0,421.0,234.0,749.0,655.0,561.0,561.0,374.0,281.0,281.0,140.0,702.0,421.0,421.0,140.0,281.0,187.0,94.0,94.0,561.0,374.0,468.0,281.0,328.0,94.0,187.0,94.0,608.0,328.0,328.0,515.0,281.0,234.0,140.0,187.0,0.0,0.0,0.0,0.0,0.0,0.0,0.0,0.0,94.0,421.0,94.0,-94.0,47.0,187.0,234.0,-94.0,47.0,140.0,374.0,-4445.0,-94.0,281.0,328.0,187.0,0.0,234.0,-187.0,328.0,374.0,234.0,468.0,47.0,187.0,-140.0,-421.0,515.0,561.0,-47.0,94.0,140.0,-561.0,-47.0,515.0,889.0,515.0,0.0,842.0,374.0,702.0,94.0,983.0,1544.0,983.0,140.0,140.0,-140.0,0.0,0.0,0.0,0.0,0.0,0.0,0.0,0.0,749.0,234.0,374.0,655.0,187.0,421.0,234.0,-234.0,140.0,328.0,421.0,328.0,374.0,608.0,515.0,561.0,468.0,328.0,515.0,421.0,702.0,234.0,374.0,468.0,94.0,47.0,140.0,468.0,94.0,468.0,374.0,468.0,0.0,374.0,187.0,328.0,468.0,281.0,234.0,936.0,-1310.0,655.0,468.0,468.0,561.0,608.0,749.0,421.0,468.0,655.0,421.0,561.0,328.0,468.0,47.0,421.0,1731.0,702.0,795.0,468.0,655.0,1029.0,140.0,1076.0,-561.0,936.0,187.0,515.0,-234.0,328.0,-187.0,655.0,795.0,421.0,889.0,187.0,468.0,374.0,328.0,468.0,374.0,468.0,328.0,561.0,374.0,374.0,140.0,515.0,655.0,94.0,281.0,281.0,281.0,281.0,561.0,187.0,702.0,281.0,0.0,-47.0,187.0,608.0,281.0,421.0,983.0,795.0,328.0,234.0,328.0,795.0,468.0,561.0,187.0,421.0,328.0,187.0,468.0,187.0,234.0,187.0,702.0,608.0,187.0,468.0,234.0,515.0,561.0,936.0,281.0,374.0,374.0,608.0,608.0,421.0,702.0,561.0,-187.0,-47.0,328.0,608.0,749.0,749.0,702.0,421.0,0.0,0.0,749.0,468.0,702.0,608.0,749.0,655.0,-140.0,234.0,328.0,795.0,655.0,468.0,608.0,655.0,515.0,-94.0,561.0,515.0,561.0,561.0,281.0,608.0,140.0,655.0,281.0,561.0,515.0,983.0,515.0,515.0,-47.0,374.0,281.0,421.0,795.0,608.0,702.0,702.0,468.0,1263.0,702.0,749.0,889.0,936.0,889.0,795.0,561.0,842.0,749.0,655.0,889.0,561.0,515.0,561.0,47.0,561.0,842.0,842.0,842.0,749.0,702.0,468.0,281.0,608.0,795.0,608.0,889.0,795.0,468.0,795.0,655.0,655.0,468.0,749.0,608.0,608.0,515.0,561.0,421.0,421.0,655.0,561.0,608.0,281.0,655.0,468.0,281.0,561.0,702.0,561.0,94.0,561.0,702.0,702.0,421.0,468.0,702.0,515.0,234.0,515.0,795.0,983.0,655.0,561.0,328.0,328.0,374.0,281.0,374.0,702.0,140.0,234.0,94.0,-94.0,234.0,187.0,281.0,94.0,-94.0,94.0,140.0,-140.0,94.0,281.0,328.0,328.0,187.0,187.0,47.0,421.0,187.0,140.0,187.0,187.0,281.0,374.0,374.0,515.0,281.0,-187.0,94.0,140.0,468.0,281.0,421.0,608.0,328.0,187.0,281.0,749.0,702.0,515.0,515.0,561.0,655.0,421.0,655.0,608.0,842.0,421.0,655.0,608.0,795.0,749.0,515.0,608.0,94.0,-140.0,421.0,983.0,749.0,655.0,421.0,655.0,0.0,0.0,0.0,0.0,0.0,0.0,0.0,0.0,-795.0,-281.0,-281.0,-94.0,94.0,-2152.0,-3743.0,187.0,-655.0,655.0,-140.0,-702.0,-1544.0,187.0,-187.0,47.0,140.0,-140.0,140.0,-655.0,-842.0,-749.0,-140.0,-140.0,281.0,47.0,-47.0,-468.0,-1778.0,-561.0,94.0,-140.0,47.0,468.0,-94.0,-421.0,-281.0,-374.0,-47.0,-47.0,140.0,187.0,47.0,-561.0,-94.0,-328.0,-140.0,-94.0,0.0,0.0,0.0,0.0,0.0,0.0,0.0,0.0,-234.0,328.0,655.0,0.0,-374.0,140.0,608.0,-140.0,561.0,94.0,-47.0,374.0,-94.0,47.0,-140.0,-47.0,-374.0,515.0,-140.0,-842.0,-468.0,-795.0,468.0,-140.0,-187.0,-187.0,47.0,47.0,94.0,-281.0,-140.0,-140.0,0.0,374.0,-47.0,-281.0,-374.0,140.0,-140.0,0.0,-94.0,-374.0,-94.0,0.0,-47.0,-94.0,-234.0,140.0,187.0,-94.0,-328.0,-187.0,-47.0,-140.0,94.0,0.0,94.0,-47.0,0.0,0.0,94.0,-187.0,0.0,-94.0,234.0,140.0,47.0,281.0,-140.0,0.0,-655.0,-515.0,-328.0,374.0,-234.0,-187.0,-187.0,-187.0,187.0,-608.0,281.0,-187.0,187.0,-140.0,-795.0,-655.0,-421.0,47.0,-608.0,-187.0,-47.0,-234.0,-140.0,-281.0,-281.0,0.0,-234.0,-374.0,-421.0,-94.0,-47.0,-140.0,-47.0,-281.0,-515.0,-374.0,-374.0,-374.0,-94.0,-140.0,-281.0,-328.0,-468.0,-468.0,-47.0,-187.0,-94.0,-468.0,-374.0,-515.0,-468.0,47.0,-187.0,-234.0,-328.0,-140.0,-795.0,0.0,421.0,328.0,328.0,-187.0,187.0,234.0,94.0,187.0,187.0,374.0,47.0,-140.0,-94.0,234.0,-1170.0,234.0,-468.0,281.0,-140.0,-234.0,94.0,281.0,-187.0,94.0,234.0,-374.0,234.0,-281.0,-47.0,328.0,328.0,328.0,94.0,0.0,0.0,-281.0,47.0,187.0,-94.0,234.0,94.0,-47.0,-47.0,-187.0,-140.0,-140.0,47.0,140.0,47.0,-702.0,-374.0,-468.0,-328.0,-140.0,94.0,187.0,0.0,-234.0,-94.0,-234.0,-187.0,-94.0,47.0,-47.0,374.0,421.0,187.0,187.0,328.0,468.0,47.0,281.0,0.0,187.0,234.0,140.0,94.0,-47.0,328.0,-281.0,-140.0,0.0,-328.0,47.0,-328.0,94.0,-47.0,281.0,187.0,-187.0,234.0,187.0,-281.0,47.0,94.0,47.0,-47.0,-47.0,-187.0,94.0,0.0,47.0,187.0,281.0,-47.0,-187.0,-47.0,0.0,0.0,0.0,0.0,281.0,-187.0,-234.0,-187.0,47.0,0.0,-47.0,234.0,140.0,0.0,-234.0,94.0,94.0,-47.0,140.0,140.0,421.0,-1123.0,889.0,515.0,-561.0,1357.0,983.0,655.0,1217.0,-1263.0,795.0,655.0,-1170.0,0.0,1217.0,-281.0,187.0,-94.0,281.0,-47.0,655.0,468.0,889.0,608.0,795.0,-187.0,702.0,749.0,702.0,936.0,795.0,889.0,1076.0,0.0,234.0,749.0,374.0,655.0,749.0,749.0,842.0,-608.0,-187.0,-702.0,328.0,328.0,561.0,608.0,655.0,-655.0,-983.0,-515.0,-140.0,-47.0,187.0,-47.0,140.0,-1217.0,-468.0,-561.0,-561.0,47.0,47.0,-47.0,234.0,0.0,0.0,0.0,0.0,0.0,0.0,0.0,0.0,-1638.0,-983.0,-47.0,94.0,140.0,0.0,0.0,94.0,-1357.0,-842.0,47.0,47.0,47.0,47.0,-47.0,47.0,-702.0,-281.0,47.0,47.0,47.0,47.0,47.0,0.0,-374.0,-187.0,47.0,47.0,47.0,0.0,-47.0,-47.0,-234.0,-187.0,47.0,-140.0,-94.0,-94.0,-140.0,-47.0,-374.0,-47.0,-94.0,-234.0,-328.0,-281.0,-281.0,-234.0,0.0,0.0,0.0,0.0,0.0,0.0,0.0,0.0,-515.0,-515.0,-234.0,-187.0,-94.0,0.0,0.0,94.0,-328.0,-421.0,-234.0,-234.0,-140.0,-47.0,0.0,-140.0,-468.0,-328.0,-234.0,-140.0,-94.0,-187.0,-47.0,-94.0,-281.0,-94.0,-187.0,-187.0,-94.0,-94.0,-140.0,-140.0,-234.0,-281.0,-140.0,-94.0,-94.0,0.0,0.0,-47.0,-94.0,-187.0,-140.0,-47.0,-47.0,-94.0,0.0,140.0,-187.0,-140.0,-47.0,-47.0,-47.0,-47.0,-94.0,-94.0,-94.0,-47.0,0.0,-47.0,-47.0,-47.0,47.0,0.0,-936.0,-421.0,-515.0,-281.0,-140.0,-187.0,-234.0,-94.0,-749.0,-936.0,-328.0,-234.0,-281.0,-187.0,-234.0,-94.0,-842.0,-889.0,-561.0,-234.0,-234.0,-187.0,-187.0,-47.0,-561.0,-608.0,-515.0,-468.0,-234.0,-187.0,-140.0,-94.0,-328.0,-328.0,-421.0,-468.0,-515.0,-140.0,-187.0,-140.0,-281.0,-187.0,-187.0,-328.0,-421.0,-421.0,-187.0,-234.0,-328.0,-281.0,-281.0,-328.0,-468.0,-608.0,-561.0,-328.0,-281.0,-234.0,-281.0,-281.0,-421.0,-749.0,-1029.0,-749.0,-889.0,-749.0,-608.0,-655.0,-655.0,-655.0,-608.0,-608.0,-889.0,-702.0,-608.0,-561.0,-561.0,-561.0,-421.0,-702.0,-936.0,-655.0,-702.0,-608.0,-515.0,-515.0,-468.0,-515.0,-1310.0,-1029.0,-702.0,-608.0,-561.0,-421.0,-468.0,-515.0,-1310.0,-795.0,-561.0,-515.0,-515.0,-515.0,-468.0,-468.0,-1263.0,-749.0,-655.0,-608.0,-561.0,-515.0,-515.0,-468.0,-1123.0,-842.0,-608.0,-655.0,-608.0,-515.0,-608.0,-515.0,-1029.0,-889.0,-655.0,-702.0,-655.0,-608.0,-608.0,-608.0,-1029.0,-983.0,-1076.0,-1123.0,-983.0,-983.0,-1029.0,-1029.0,-1029.0,-1076.0,-1123.0,-1076.0,-1029.0,-1029.0,-1029.0,-1123.0,-1170.0,-1310.0,-1170.0,-1076.0,-1170.0,-1029.0,-936.0,-983.0,-1123.0,-1217.0,-1170.0,-1170.0,-1029.0,-983.0,-1029.0,-1076.0,-1170.0,-1217.0,-1217.0,-1170.0,-1123.0,-1029.0,-1029.0,-1029.0,-1263.0,-1217.0,-1217.0,-1217.0,-1263.0,-983.0,-1123.0,-983.0,-1170.0,-1123.0,-1310.0,-1170.0,-1170.0,-1217.0,-1123.0,-936.0,-1310.0,-1170.0,-1357.0,-1357.0,-1357.0,-1357.0,-1123.0,-1123.0,-1076.0,-983.0,-187.0,468.0,655.0,702.0,749.0,655.0,-1591.0,-842.0,-187.0,374.0,608.0,702.0,608.0,702.0,-1263.0,-1404.0,-140.0,374.0,608.0,608.0,702.0,702.0,-140.0,-561.0,94.0,374.0,515.0,608.0,608.0,655.0,-140.0,187.0,140.0,421.0,468.0,515.0,515.0,608.0,655.0,374.0,328.0,328.0,468.0,515.0,421.0,421.0,842.0,749.0,561.0,328.0,421.0,374.0,328.0,374.0,795.0,608.0,702.0,608.0,515.0,421.0,47.0,-421.0,0.0,0.0,0.0,0.0,0.0,0.0,0.0,0.0,1404.0,983.0,515.0,234.0,281.0,140.0,94.0,0.0,1638.0,1170.0,328.0,187.0,234.0,94.0,47.0,94.0,1217.0,749.0,0.0,-47.0,47.0,94.0,94.0,0.0,655.0,234.0,47.0,0.0,0.0,0.0,47.0,47.0,234.0,140.0,94.0,0.0,94.0,-47.0,47.0,47.0,140.0,140.0,187.0,94.0,140.0,94.0,94.0,94.0,0.0,0.0,0.0,0.0,0.0,0.0,0.0,0.0,702.0,328.0,374.0,234.0,140.0,94.0,421.0,140.0,47.0,328.0,374.0,281.0,281.0,234.0,187.0,374.0,187.0,140.0,374.0,281.0,328.0,234.0,187.0,234.0,234.0,187.0,281.0,328.0,328.0,187.0,140.0,281.0,281.0,374.0,281.0,328.0,234.0,187.0,140.0,140.0,140.0,187.0,187.0,234.0,187.0,140.0,281.0,374.0,0.0,94.0,281.0,187.0,140.0,234.0,281.0,140.0,468.0,-94.0,281.0,234.0,187.0,234.0,328.0,187.0,468.0,468.0,374.0,94.0,187.0,94.0,140.0,-1170.0,515.0,515.0,328.0,187.0,187.0,281.0,94.0,234.0,187.0,421.0,421.0,281.0,328.0,234.0,187.0,140.0,187.0,328.0,421.0,421.0,374.0,281.0,187.0,234.0,281.0,281.0,468.0,374.0,374.0,281.0,281.0,187.0,281.0,187.0,328.0,234.0,374.0,281.0,234.0,187.0,140.0,140.0,234.0,234.0,281.0,328.0,281.0,187.0,47.0,234.0,234.0,187.0,281.0,328.0,374.0,187.0,47.0,328.0,561.0,468.0,421.0,468.0,515.0,328.0,234.0,374.0,468.0,468.0,468.0,328.0,468.0,374.0,140.0,328.0,468.0,421.0,374.0,421.0,374.0,328.0,468.0,515.0,515.0,468.0,421.0,374.0,468.0,374.0,608.0,561.0,608.0,468.0,468.0,468.0,328.0,421.0,655.0,655.0,421.0,515.0,515.0,421.0,374.0,374.0,702.0,608.0,515.0,421.0,421.0,468.0,421.0,421.0,655.0,655.0,515.0,421.0,374.0,468.0,515.0,328.0,889.0,842.0,842.0,749.0,655.0,842.0,749.0,842.0,702.0,936.0,983.0,795.0,842.0,795.0,1076.0,983.0,749.0,983.0,1076.0,889.0,749.0,795.0,983.0,983.0,842.0,1029.0,983.0,983.0,983.0,936.0,936.0,842.0,1029.0,1076.0,1029.0,983.0,983.0,936.0,889.0,889.0,1029.0,1029.0,983.0,983.0,936.0,936.0,1029.0,795.0,983.0,889.0,936.0,889.0,842.0,889.0,842.0,1029.0,983.0,1029.0,842.0,749.0,842.0,936.0,983.0,608.0,0.0,328.0,374.0,281.0,281.0,328.0,140.0,-468.0,-47.0,421.0,421.0,187.0,281.0,234.0,187.0,187.0,328.0,468.0,515.0,421.0,140.0,187.0,140.0,187.0,468.0,468.0,515.0,328.0,281.0,281.0,234.0,0.0,421.0,515.0,468.0,421.0,374.0,328.0,187.0,140.0,608.0,515.0,468.0,374.0,328.0,281.0,234.0,187.0,421.0,468.0,374.0,374.0,328.0,281.0,281.0,328.0,374.0,421.0,374.0,281.0,328.0,281.0,281.0,328.0,0.0,0.0,0.0,0.0,0.0,0.0,0.0,0.0,94.0,-94.0,0.0,187.0,94.0,0.0,0.0,47.0,0.0,-140.0,-47.0,-47.0,0.0,-47.0,0.0,0.0,0.0,-140.0,0.0,-94.0,0.0,-47.0,0.0,-94.0,47.0,-140.0,0.0,94.0,-94.0,0.0,-94.0,-47.0,374.0,94.0,421.0,328.0,281.0,140.0,234.0,-47.0,234.0,-281.0,140.0,94.0,47.0,47.0,47.0,94.0,0.0,0.0,0.0,0.0,0.0,0.0,0.0,0.0,-561.0,-608.0,-608.0,-515.0,-702.0,-374.0,-561.0,-608.0,-374.0,-515.0,-608.0,-468.0,-421.0,-561.0,-468.0,-515.0,-468.0,-374.0,-421.0,-374.0,-374.0,-421.0,-374.0,-374.0,-328.0,-421.0,-281.0,-187.0,-187.0,-281.0,-281.0,-374.0,-281.0,-187.0,-234.0,-187.0,-94.0,-94.0,0.0,-281.0,-140.0,-187.0,-187.0,-140.0,0.0,-47.0,-94.0,187.0,-140.0,-187.0,-47.0,-140.0,47.0,0.0,-94.0,234.0,234.0,-94.0,-47.0,47.0,47.0,140.0,0.0,-47.0,-702.0,-421.0,-655.0,-608.0,-515.0,-655.0,-234.0,-889.0,-608.0,-608.0,-515.0,-374.0,-655.0,-468.0,-608.0,-795.0,-468.0,-515.0,-328.0,-515.0,-421.0,-608.0,-328.0,-515.0,-374.0,-234.0,-421.0,-328.0,-421.0,-328.0,-374.0,-281.0,-47.0,-421.0,-234.0,-374.0,-140.0,-328.0,-187.0,-421.0,-328.0,-234.0,-234.0,-140.0,-187.0,-281.0,-281.0,-94.0,-140.0,-561.0,-281.0,-234.0,-234.0,-281.0,-374.0,-374.0,-468.0,-374.0,-374.0,-281.0,-468.0,-94.0,-374.0,-515.0,-795.0,-515.0,-702.0,-749.0,-749.0,-702.0,-608.0,-749.0,-702.0,-655.0,-702.0,-749.0,-655.0,-561.0,-608.0,-889.0,-936.0,-608.0,-749.0,-749.0,-655.0,-561.0,-561.0,-561.0,-889.0,-468.0,-561.0,-608.0,-749.0,-421.0,-515.0,-608.0,-749.0,-468.0,-608.0,-561.0,-421.0,-515.0,-561.0,-561.0,-328.0,-515.0,-234.0,-421.0,-234.0,-234.0,-281.0,-234.0,0.0,0.0,-187.0,-234.0,-94.0,-94.0,-94.0,0.0,-140.0,-94.0,-47.0,-94.0,-140.0,-94.0,-140.0,-47.0,655.0,608.0,561.0,515.0,561.0,374.0,608.0,608.0,655.0,655.0,561.0,515.0,515.0,655.0,608.0,561.0,749.0,749.0,655.0,561.0,608.0,795.0,702.0,702.0,795.0,749.0,889.0,702.0,889.0,842.0,749.0,795.0,1029.0,842.0,936.0,1029.0,1029.0,983.0,842.0,795.0,1029.0,936.0,1029.0,1029.0,983.0,936.0,1029.0,889.0,1217.0,1076.0,1029.0,1076.0,1076.0,1029.0,889.0,983.0,1263.0,1170.0,1217.0,1217.0,1217.0,1263.0,1123.0,889.0,-140.0,0.0,-94.0,-187.0,-281.0,-94.0,0.0,-47.0,-140.0,-140.0,-234.0,-187.0,-187.0,-140.0,-140.0,-94.0,-140.0,-234.0,-281.0,-281.0,-281.0,-187.0,-187.0,-140.0,-468.0,-140.0,-281.0,-281.0,-234.0,-234.0,-328.0,-140.0,-468.0,-936.0,-187.0,-281.0,-47.0,-234.0,-328.0,-281.0,-983.0,-795.0,-94.0,-468.0,-515.0,47.0,-234.0,-94.0,-702.0,-1029.0,-561.0,-421.0,-374.0,-421.0,-795.0,-140.0,-561.0,-842.0,328.0,-468.0,140.0,-140.0,-561.0,-702.0,0.0,0.0,0.0,0.0,0.0,0.0,0.0,0.0,-281.0,47.0,-47.0,-1825.0,-561.0,187.0,-421.0,-936.0,328.0,328.0,328.0,328.0,234.0,94.0,281.0,234.0,281.0,140.0,328.0,328.0,187.0,234.0,281.0,140.0,281.0,187.0,281.0,421.0,328.0,140.0,234.0,187.0,140.0,187.0,281.0,234.0,187.0,0.0,140.0,234.0,140.0,47.0,-140.0,-187.0,-234.0,-94.0,47.0,281.0,0.0,0.0,0.0,0.0,0.0,0.0,0.0,0.0,842.0,515.0,515.0,421.0,561.0,468.0,234.0,561.0,795.0,608.0,655.0,515.0,515.0,515.0,328.0,468.0,328.0,468.0,468.0,561.0,421.0,187.0,374.0,187.0,608.0,468.0,374.0,468.0,374.0,281.0,374.0,234.0,608.0,328.0,421.0,328.0,328.0,234.0,328.0,281.0,561.0,515.0,374.0,421.0,281.0,281.0,234.0,515.0,608.0,608.0,421.0,374.0,468.0,328.0,468.0,421.0,702.0,515.0,328.0,374.0,328.0,374.0,421.0,468.0,374.0,468.0,608.0,421.0,515.0,468.0,328.0,374.0,561.0,468.0,515.0,421.0,561.0,328.0,234.0,749.0,421.0,468.0,561.0,468.0,328.0,187.0,140.0,281.0,421.0,328.0,421.0,421.0,281.0,328.0,468.0,187.0,468.0,468.0,187.0,328.0,281.0,374.0,468.0,281.0,468.0,328.0,468.0,374.0,374.0,187.0,374.0,515.0,655.0,468.0,187.0,374.0,281.0,374.0,328.0,515.0,749.0,468.0,374.0,374.0,374.0,374.0,468.0,515.0,655.0,749.0,749.0,749.0,608.0,842.0,936.0,889.0,655.0,795.0,655.0,749.0,655.0,795.0,795.0,842.0,655.0,702.0,749.0,749.0,702.0,749.0,889.0,889.0,561.0,608.0,655.0,655.0,608.0,468.0,655.0,749.0,608.0,468.0,515.0,515.0,468.0,468.0,608.0,749.0,702.0,561.0,515.0,468.0,421.0,421.0,468.0,608.0,515.0,374.0,468.0,468.0,374.0,374.0,515.0,561.0,515.0,468.0,421.0,421.0,421.0,328.0,515.0,749.0,-328.0,-281.0,-187.0,-374.0,-234.0,-94.0,-187.0,47.0,-140.0,-281.0,-187.0,-140.0,-234.0,-47.0,234.0,281.0,-140.0,-140.0,0.0,-94.0,-47.0,-47.0,47.0,47.0,-281.0,-281.0,-187.0,-328.0,-328.0,-234.0,-47.0,-47.0,-281.0,-234.0,-374.0,-608.0,-421.0,-421.0,-421.0,-94.0,-187.0,-421.0,-608.0,-468.0,-468.0,-468.0,-374.0,-187.0,-421.0,-515.0,-468.0,-608.0,-515.0,-515.0,-374.0,-374.0,-281.0,-515.0,-561.0,-468.0,-468.0,-421.0,-515.0,-374.0,-1825.0,-1123.0,-1825.0,-1965.0,-1357.0,-1404.0,-1123.0,-655.0,-702.0,-1778.0,-2246.0,-2246.0,-2199.0,-2714.0,-1076.0,-1263.0,-983.0,-1918.0,-1872.0,-1451.0,-2059.0,-1965.0,-2059.0,-2059.0,-1076.0,-702.0,-702.0,-515.0,-374.0,-983.0,-421.0,-281.0,-374.0,-421.0,-281.0,-94.0,0.0,140.0,140.0,234.0,94.0,-47.0,47.0,187.0,234.0,281.0,234.0,328.0,234.0,234.0,374.0,281.0,328.0,328.0,328.0,234.0,281.0,515.0,468.0,468.0,468.0,468.0,328.0,421.0,0.0,0.0,0.0,0.0,0.0,0.0,0.0,0.0,47.0,-140.0,0.0,-234.0,140.0,94.0,234.0,94.0,47.0,0.0,94.0,187.0,94.0,-2059.0,187.0,328.0,47.0,328.0,140.0,187.0,-2199.0,140.0,328.0,140.0,328.0,421.0,328.0,-1076.0,140.0,328.0,0.0,140.0,795.0,702.0,374.0,281.0,281.0,140.0,-94.0,0.0,234.0,889.0,140.0,234.0,561.0,328.0,-140.0,281.0,0.0,0.0,0.0,0.0,0.0,0.0,0.0,0.0,-94.0,-328.0,-140.0,-655.0,-140.0,-234.0,-515.0,-702.0,-187.0,140.0,-140.0,-140.0,-47.0,140.0,-702.0,-328.0,-328.0,47.0,-47.0,94.0,94.0,-374.0,47.0,-328.0,0.0,281.0,234.0,187.0,-47.0,47.0,-140.0,-94.0,561.0,94.0,94.0,281.0,47.0,281.0,-187.0,47.0,749.0,561.0,515.0,421.0,374.0,187.0,-421.0,47.0,561.0,515.0,468.0,374.0,421.0,94.0,421.0,608.0,-281.0,842.0,234.0,795.0,561.0,421.0,749.0,-561.0,47.0,889.0,187.0,1404.0,421.0,1076.0,468.0,2761.0,936.0,94.0,1076.0,281.0,1310.0,421.0,2059.0,94.0,374.0,842.0,328.0,1217.0,421.0,1825.0,140.0,1684.0,1170.0,655.0,889.0,421.0,1591.0,374.0,1357.0,234.0,561.0,1029.0,561.0,1497.0,749.0,1357.0,421.0,1170.0,749.0,702.0,1451.0,702.0,1451.0,749.0,1217.0,468.0,234.0,1591.0,795.0,1357.0,749.0,1263.0,561.0,1076.0,1497.0,842.0,1076.0,702.0,1310.0,655.0,1076.0,608.0,0.0,94.0,187.0,47.0,47.0,0.0,-94.0,-187.0,187.0,-47.0,234.0,94.0,140.0,140.0,0.0,-94.0,47.0,-47.0,234.0,281.0,140.0,-468.0,94.0,140.0,234.0,187.0,374.0,281.0,47.0,234.0,-94.0,468.0,281.0,374.0,374.0,187.0,281.0,468.0,-187.0,281.0,468.0,281.0,374.0,421.0,468.0,421.0,234.0,374.0,374.0,421.0,421.0,281.0,421.0,374.0,328.0,561.0,655.0,47.0,468.0,468.0,468.0,421.0,421.0,234.0,655.0,421.0,655.0,468.0,655.0,608.0,468.0,1825.0,749.0,702.0,468.0,702.0,702.0,983.0,1217.0,515.0,702.0,749.0,702.0,702.0,842.0,702.0,889.0,655.0,655.0,842.0,842.0,1029.0,561.0,889.0,889.0,749.0,983.0,889.0,842.0,655.0,983.0,983.0,842.0,842.0,842.0,936.0,936.0,1029.0,1123.0,702.0,936.0,1076.0,983.0,1123.0,889.0,889.0,1029.0,983.0,1029.0,1170.0,1029.0,795.0,702.0,749.0,1076.0,1123.0,1217.0,702.0,515.0,561.0,702.0,328.0,421.0,655.0,515.0,374.0,421.0,374.0,374.0,374.0,374.0,515.0,374.0,515.0,0.0,47.0,140.0,47.0,281.0,281.0,515.0,374.0,47.0,140.0,-187.0,94.0,-47.0,328.0,328.0,140.0,515.0,140.0,-328.0,-374.0,0.0,-187.0,468.0,281.0,281.0,515.0,-94.0,-187.0,-140.0,140.0,0.0,187.0,374.0,281.0,421.0,-140.0,94.0,-281.0,-47.0,47.0,-140.0,561.0,140.0,281.0,187.0,468.0,0.0,281.0,0.0,0.0,0.0,0.0,0.0,0.0,0.0,0.0,-94.0,-468.0,-47.0,-655.0,-47.0,-561.0,-1123.0,-1123.0,-140.0,-94.0,0.0,-47.0,187.0,-2386.0,-281.0,-187.0,-94.0,-94.0,140.0,47.0,-2059.0,94.0,-94.0,-140.0,-47.0,47.0,-47.0,-1965.0,47.0,-47.0,-94.0,-94.0,-47.0,-94.0,-936.0,-187.0,94.0,-94.0,-140.0,-140.0,-47.0,94.0,-328.0,-47.0,47.0,-94.0,-94.0,-47.0,0.0,0.0,0.0,0.0,0.0,0.0,0.0,0.0,0.0,-47.0,-515.0,-94.0,-187.0,-47.0,421.0,889.0,-281.0,-140.0,-328.0,-374.0,-421.0,-421.0,281.0,-281.0,47.0,-94.0,-140.0,47.0,-281.0,-1029.0,-328.0,468.0,-234.0,0.0,94.0,-94.0,47.0,-328.0,47.0,281.0,187.0,-94.0,94.0,-47.0,234.0,281.0,0.0,140.0,234.0,-47.0,94.0,234.0,187.0,-47.0,-140.0,328.0,140.0,561.0,140.0,140.0,-94.0,0.0,281.0,47.0,608.0,281.0,374.0,0.0,140.0,187.0,234.0,655.0,94.0,-94.0,328.0,0.0,-281.0,-187.0,-281.0,-936.0,-328.0,-47.0,47.0,-47.0,-140.0,-421.0,-561.0,-515.0,-140.0,0.0,-94.0,0.0,-281.0,-702.0,-281.0,-374.0,-140.0,0.0,-281.0,-234.0,-1310.0,94.0,-140.0,-94.0,140.0,-140.0,-140.0,-1638.0,-47.0,0.0,-47.0,47.0,-140.0,0.0,-608.0,47.0,-187.0,-47.0,-94.0,0.0,-187.0,-749.0,-94.0,-47.0,-47.0,47.0,-94.0,-94.0,-1310.0,-328.0,187.0,-47.0,0.0,0.0,47.0,187.0,-421.0,-47.0,-47.0,0.0,47.0,234.0,-94.0,187.0,-374.0,-234.0,-187.0,-94.0,140.0,-140.0,-94.0,281.0,-187.0,-47.0,-94.0,94.0,-187.0,47.0,-561.0,140.0,187.0,140.0,47.0,-94.0,468.0,-187.0,140.0,281.0,-47.0,140.0,0.0,281.0,0.0,281.0,328.0,328.0,234.0,187.0,187.0,94.0,94.0,187.0,234.0,374.0,187.0,281.0,47.0,-47.0,47.0,187.0,47.0,140.0,281.0,140.0,94.0,0.0,-94.0,-47.0,94.0,140.0,-655.0,-842.0,-842.0,-983.0,-1357.0,-421.0,-842.0,-515.0,-936.0,-608.0,-328.0,-795.0,-655.0,-842.0,-374.0,-515.0,-608.0,-421.0,-655.0,-187.0,-561.0,-328.0,-889.0,-47.0,-468.0,-561.0,-374.0,-655.0,-281.0,-936.0,-140.0,-515.0,-608.0,-187.0,-421.0,-328.0,-608.0,-234.0,-281.0,-468.0,-281.0,-561.0,-234.0,-515.0,-328.0,-328.0,-421.0,-374.0,-421.0,-47.0,-468.0,-561.0,-515.0,-702.0,-561.0,-421.0,-140.0,-421.0,-468.0,-749.0,-561.0,-608.0,-374.0,-889.0,-1638.0,-421.0,-1918.0,-1684.0,-374.0,-1029.0,561.0,-1029.0,140.0,-655.0,-1638.0,-1451.0,-1170.0,-1357.0,-655.0,187.0,-187.0,-842.0,-655.0,234.0,-187.0,-1778.0,-421.0,795.0,421.0,47.0,0.0,47.0,328.0,0.0,-281.0,-561.0,281.0,328.0,140.0,374.0,281.0,421.0,0.0,749.0,842.0,374.0,795.0,374.0,468.0,281.0,468.0,187.0,749.0,983.0,515.0,655.0,187.0,374.0,-47.0,281.0,1076.0,561.0,795.0,374.0,281.0,140.0,140.0,-94.0,0.0,0.0,0.0,0.0,0.0,0.0,0.0,0.0,-140.0,187.0,-889.0,515.0,94.0,0.0,-281.0,-281.0,-281.0,140.0,-374.0,328.0,-468.0,-140.0,-468.0,-187.0,47.0,-234.0,889.0,-187.0,-234.0,-234.0,-515.0,-187.0,-421.0,-468.0,983.0,-1638.0,-47.0,-3088.0,140.0,-702.0,-515.0,468.0,234.0,-47.0,0.0,-749.0,94.0,0.0,702.0,1217.0,94.0,-94.0,795.0,-1684.0,749.0,-3275.0,0.0,0.0,0.0,0.0,0.0,0.0,0.0,0.0,-187.0,-47.0,140.0,889.0,47.0,-47.0,281.0,374.0,47.0,234.0,47.0,140.0,-187.0,-140.0,328.0,-47.0,-47.0,94.0,-749.0,-187.0,-421.0,0.0,-140.0,-94.0,-47.0,47.0,-515.0,47.0,-140.0,-140.0,94.0,0.0,94.0,-94.0,328.0,-1029.0,-47.0,-374.0,140.0,94.0,234.0,-374.0,234.0,-468.0,561.0,-281.0,187.0,0.0,-187.0,47.0,-234.0,281.0,-421.0,-468.0,-702.0,281.0,468.0,608.0,468.0,234.0,0.0,515.0,421.0,281.0,-94.0,468.0,94.0,-328.0,0.0,-140.0,94.0,-281.0,234.0,140.0,374.0,140.0,-234.0,234.0,-515.0,-140.0,328.0,561.0,140.0,0.0,608.0,-749.0,-47.0,-515.0,-47.0,702.0,-468.0,515.0,-374.0,140.0,-749.0,140.0,374.0,-749.0,795.0,-561.0,94.0,-281.0,281.0,94.0,-234.0,1123.0,-515.0,0.0,234.0,187.0,-421.0,374.0,655.0,-374.0,47.0,-47.0,-187.0,-842.0,140.0,421.0,-421.0,-187.0,-515.0,374.0,-47.0,983.0,-561.0,421.0,-140.0,-281.0,-47.0,94.0,-47.0,-94.0,94.0,-140.0,0.0,-234.0,47.0,-94.0,-94.0,-94.0,-234.0,-1451.0,47.0,-94.0,561.0,187.0,-187.0,-94.0,-234.0,-421.0,47.0,421.0,-47.0,0.0,-47.0,47.0,94.0,-374.0,-47.0,140.0,-94.0,-702.0,-421.0,-655.0,-234.0,-749.0,-140.0,-281.0,-608.0,-889.0,-234.0,-702.0,-983.0,-702.0,140.0,140.0,0.0,-328.0,-187.0,-749.0,-374.0,-608.0,-94.0,140.0,-515.0,-421.0,-94.0,-421.0,47.0,-374.0,-47.0,-94.0,47.0,-187.0,47.0,0.0,-140.0,-328.0,234.0,94.0,47.0,-47.0,-187.0,-187.0,-187.0,-515.0,187.0,234.0,187.0,47.0,-94.0,-94.0,-515.0,-328.0,94.0,94.0,187.0,-140.0,-94.0,-47.0,-328.0,-187.0,281.0,94.0,328.0,47.0,-515.0,-187.0,-234.0,-608.0,374.0,94.0,-187.0,-94.0,-94.0,94.0,-187.0,-281.0,-47.0,187.0,-47.0,-281.0,-655.0,-140.0,-421.0,-795.0,281.0,-187.0,47.0,-234.0,-374.0,-702.0,-281.0,-515.0,-187.0,-561.0,-608.0,-421.0,374.0,328.0,234.0,374.0,-140.0,-1076.0,-889.0,-47.0,281.0,515.0,655.0,374.0,-889.0,47.0,0.0,374.0,374.0,515.0,608.0,702.0,-47.0,328.0,234.0,328.0,561.0,421.0,515.0,608.0,-795.0,-187.0,328.0,-94.0,-749.0,515.0,468.0,421.0,-421.0,-1451.0,-655.0,-1497.0,374.0,702.0,47.0,655.0,-328.0,1029.0,889.0,-1076.0,-1404.0,702.0,-468.0,1404.0,1404.0,1591.0,-187.0,-561.0,1778.0,1731.0,1684.0,1404.0,0.0,0.0,0.0,0.0,0.0,0.0,0.0,0.0,47.0,468.0,795.0,374.0,749.0,561.0,281.0,234.0,-47.0,374.0,374.0,328.0,608.0,-234.0,-608.0,515.0,234.0,47.0,561.0,983.0,234.0,-94.0,561.0,-421.0,421.0,0.0,655.0,-234.0,-140.0,234.0,140.0,-94.0,140.0,47.0,-234.0,-749.0,-655.0,-94.0,-140.0,140.0,94.0,47.0,-47.0,-374.0,-47.0,-47.0,0.0,-140.0,0.0,0.0,0.0,0.0,0.0,0.0,0.0,0.0,2106.0,281.0,1638.0,1123.0,1076.0,1497.0,-1029.0,-94.0,1404.0,889.0,842.0,889.0,1170.0,1029.0,1170.0,1263.0,-140.0,1029.0,608.0,608.0,749.0,842.0,983.0,842.0,655.0,608.0,47.0,468.0,187.0,421.0,608.0,1310.0,140.0,608.0,1076.0,795.0,515.0,421.0,421.0,749.0,468.0,-94.0,655.0,187.0,515.0,374.0,281.0,281.0,749.0,749.0,515.0,515.0,140.0,281.0,1076.0,608.0,0.0,608.0,140.0,842.0,187.0,561.0,-140.0,1404.0,842.0,1123.0,-234.0,1029.0,983.0,-47.0,936.0,47.0,234.0,702.0,655.0,655.0,749.0,1217.0,749.0,515.0,140.0,234.0,561.0,515.0,936.0,655.0,936.0,795.0,1123.0,94.0,608.0,702.0,936.0,421.0,468.0,795.0,468.0,561.0,374.0,936.0,140.0,421.0,468.0,328.0,-187.0,-187.0,936.0,234.0,234.0,281.0,468.0,421.0,-468.0,655.0,421.0,655.0,234.0,187.0,94.0,795.0,1029.0,421.0,561.0,561.0,515.0,140.0,281.0,-281.0,889.0,655.0,842.0,842.0,749.0,889.0,936.0,702.0,889.0,1123.0,702.0,795.0,749.0,1170.0,1076.0,702.0,842.0,889.0,842.0,795.0,936.0,1029.0,1029.0,983.0,702.0,655.0,561.0,889.0,608.0,936.0,889.0,608.0,608.0,468.0,936.0,842.0,561.0,936.0,889.0,749.0,749.0,795.0,842.0,936.0,1076.0,936.0,889.0,1123.0,468.0,561.0,234.0,842.0,795.0,655.0,795.0,702.0,468.0,655.0,421.0,655.0,795.0,608.0,655.0,561.0,421.0,374.0,702.0,936.0,281.0,561.0,1497.0,1029.0,94.0,1076.0,842.0,94.0,795.0,1217.0,1872.0,1638.0,187.0,1217.0,374.0,-281.0,1170.0,1076.0,1263.0,1310.0,1076.0,561.0,1357.0,1123.0,1217.0,795.0,1029.0,1170.0,842.0,889.0,1123.0,1263.0,702.0,889.0,1123.0,1123.0,795.0,608.0,1310.0,983.0,889.0,983.0,889.0,983.0,749.0,1170.0,1029.0,936.0,1123.0,795.0,1076.0,281.0,983.0,842.0,1123.0,936.0,983.0,936.0,702.0,795.0,1029.0,187.0,608.0,655.0,842.0,1029.0,1029.0,608.0,655.0,842.0,889.0,936.0,749.0,889.0,1310.0,1076.0,936.0,795.0,842.0,328.0,842.0,1123.0,1263.0,1123.0,842.0,889.0,421.0,795.0,983.0,468.0,1076.0,655.0,1217.0,234.0,842.0,655.0,468.0,468.0,655.0,842.0,234.0,328.0,-328.0,468.0,281.0,328.0,655.0,281.0,-47.0,-47.0,94.0,421.0,94.0,328.0,374.0,421.0,983.0,47.0,234.0,187.0,328.0,281.0,328.0,281.0,0.0,0.0,0.0,0.0,0.0,0.0,0.0,0.0,47.0,187.0,281.0,47.0,-47.0,-94.0,-47.0,187.0,94.0,187.0,140.0,-94.0,-281.0,-328.0,0.0,281.0,0.0,187.0,374.0,-187.0,-187.0,-140.0,-234.0,328.0,94.0,374.0,-281.0,187.0,-140.0,421.0,1170.0,234.0,515.0,468.0,749.0,47.0,795.0,702.0,-889.0,47.0,47.0,561.0,608.0,-94.0,0.0,187.0,47.0,94.0,0.0,0.0,0.0,0.0,0.0,0.0,0.0,0.0,-561.0,94.0,47.0,-328.0,281.0,561.0,-281.0,187.0,-561.0,421.0,187.0,47.0,-47.0,281.0,515.0,234.0,140.0,47.0,281.0,140.0,-47.0,0.0,234.0,281.0,281.0,94.0,281.0,-94.0,140.0,47.0,281.0,187.0,421.0,515.0,281.0,47.0,281.0,94.0,140.0,-47.0,561.0,374.0,468.0,328.0,655.0,655.0,140.0,515.0,-47.0,561.0,468.0,421.0,187.0,328.0,-234.0,140.0,-187.0,702.0,842.0,468.0,608.0,0.0,468.0,140.0,187.0,421.0,140.0,702.0,-94.0,140.0,608.0,655.0,-515.0,281.0,608.0,94.0,374.0,47.0,561.0,655.0,94.0,-140.0,328.0,234.0,94.0,608.0,421.0,421.0,0.0,281.0,94.0,468.0,187.0,328.0,328.0,234.0,281.0,140.0,140.0,187.0,187.0,187.0,-94.0,795.0,281.0,187.0,468.0,608.0,608.0,421.0,328.0,-234.0,655.0,0.0,234.0,94.0,94.0,421.0,281.0,702.0,515.0,421.0,234.0,421.0,94.0,234.0,281.0,140.0,0.0,94.0,47.0,328.0,281.0,374.0,561.0,234.0,-561.0,-47.0,47.0,421.0,515.0,468.0,795.0,421.0,140.0,328.0,421.0,608.0,561.0,421.0,608.0,655.0,-94.0,187.0,374.0,468.0,281.0,608.0,749.0,889.0,140.0,702.0,374.0,468.0,281.0,421.0,936.0,140.0,94.0,468.0,234.0,468.0,795.0,421.0,0.0,468.0,374.0,795.0,702.0,655.0,608.0,515.0,608.0,983.0,328.0,515.0,655.0,655.0,561.0,702.0,608.0,983.0,702.0,983.0,749.0,702.0,795.0,749.0,936.0,936.0,281.0,561.0,842.0,702.0,889.0,795.0,795.0,936.0,655.0,468.0,936.0,983.0,936.0,1029.0,1076.0,983.0,702.0,749.0,889.0,655.0,795.0,749.0,749.0,889.0,608.0,842.0,983.0,749.0,702.0,795.0,842.0,842.0,795.0,936.0,842.0,702.0,1076.0,702.0,421.0,374.0,983.0,1029.0,1029.0,842.0,842.0,421.0,889.0,1029.0,842.0,749.0,187.0,749.0,655.0,702.0,561.0,889.0,281.0,374.0,234.0,421.0,515.0,187.0,374.0,281.0,47.0,468.0,281.0,281.0,515.0,328.0,421.0,328.0,187.0,421.0,328.0,281.0,94.0,421.0,468.0,608.0,47.0,-94.0,140.0,47.0,94.0,328.0,234.0,328.0,328.0,187.0,47.0,234.0,140.0,47.0,328.0,47.0,281.0,187.0,187.0,-94.0,94.0,234.0,328.0,187.0,187.0,328.0,328.0,94.0,0.0,187.0,655.0,983.0,-328.0,-561.0,328.0,-47.0,328.0,374.0,655.0,421.0,0.0,0.0,0.0,0.0,0.0,0.0,0.0,0.0,-1170.0,702.0,-515.0,889.0,187.0,-2246.0,702.0,-3182.0,-561.0,421.0,328.0,-94.0,-281.0,-5662.0,281.0,0.0,-234.0,94.0,94.0,-468.0,-234.0,-1029.0,94.0,47.0,0.0,0.0,140.0,-187.0,-561.0,-749.0,-94.0,-47.0,-94.0,-140.0,-47.0,47.0,702.0,0.0,-655.0,47.0,0.0,47.0,-421.0,140.0,-140.0,-421.0,-421.0,-47.0,0.0,0.0,0.0,0.0,0.0,0.0,0.0,0.0,187.0,702.0,608.0,749.0,-702.0,187.0,234.0,1591.0,608.0,0.0,234.0,374.0,-421.0,-234.0,-281.0,1076.0,608.0,749.0,-94.0,-515.0,-374.0,-561.0,-47.0,-608.0,187.0,328.0,-374.0,-140.0,47.0,-515.0,234.0,-936.0,-187.0,140.0,234.0,281.0,-421.0,-1029.0,-47.0,-94.0,608.0,0.0,-234.0,-140.0,-94.0,94.0,-374.0,-374.0,0.0,655.0,655.0,-47.0,-468.0,-140.0,-234.0,421.0,328.0,94.0,47.0,187.0,94.0,-47.0,281.0,-94.0,-47.0,-374.0,374.0,-94.0,47.0,-187.0,187.0,374.0,328.0,187.0,-421.0,561.0,-140.0,-561.0,421.0,-374.0,140.0,140.0,47.0,-1123.0,140.0,-608.0,-328.0,-94.0,0.0,-47.0,140.0,-608.0,-94.0,47.0,-374.0,515.0,-281.0,-140.0,140.0,0.0,-234.0,-421.0,94.0,-655.0,47.0,-47.0,-234.0,-94.0,140.0,-421.0,-795.0,-94.0,-328.0,-140.0,-281.0,94.0,-94.0,-140.0,-281.0,-468.0,-281.0,-421.0,234.0,47.0,-281.0,-47.0,94.0,515.0,-140.0,-140.0,-94.0,140.0,-468.0,-281.0,187.0,-187.0,140.0,328.0,140.0,-94.0,94.0,-94.0,-328.0,-936.0,140.0,-234.0,-187.0,-655.0,-187.0,-561.0,-515.0,-140.0,94.0,0.0,-140.0,-234.0,0.0,-187.0,-515.0,-468.0,234.0,0.0,-140.0,-468.0,-234.0,-281.0,-374.0,-47.0,234.0,328.0,234.0,187.0,-94.0,47.0,140.0,-94.0,-140.0,-94.0,-94.0,-94.0,140.0,-47.0,-187.0,47.0,47.0,-140.0,-140.0,47.0,47.0,-47.0,-47.0,-140.0,-515.0,-608.0,-515.0,-281.0,-421.0,-795.0,-795.0,-374.0,47.0,-47.0,-374.0,-328.0,-140.0,-561.0,-281.0,-187.0,0.0,-94.0,-281.0,-561.0,-655.0,-281.0,-281.0,94.0,-328.0,-140.0,-187.0,-655.0,-795.0,-374.0,-421.0,0.0,-281.0,-47.0,-421.0,-140.0,-608.0,-468.0,-187.0,-187.0,140.0,-140.0,-140.0,0.0,-140.0,-234.0,-47.0,-47.0,-47.0,0.0,-374.0,-140.0,-187.0,0.0,-140.0,-47.0,-140.0,-234.0,-328.0,-187.0,0.0,-140.0,140.0,-47.0,936.0,795.0,795.0,702.0,889.0,655.0,889.0,842.0,889.0,749.0,655.0,655.0,515.0,795.0,561.0,187.0,889.0,-842.0,515.0,234.0,0.0,-702.0,140.0,328.0,936.0,187.0,468.0,561.0,468.0,47.0,421.0,47.0,-328.0,328.0,421.0,795.0,187.0,140.0,421.0,140.0,94.0,-47.0,421.0,281.0,561.0,140.0,0.0,561.0,140.0,328.0,328.0,328.0,234.0,468.0,561.0,561.0,655.0,515.0,515.0,421.0,468.0,608.0,328.0,421.0,0.0,0.0,0.0,0.0,0.0,0.0,0.0,0.0,-94.0,-94.0,-47.0,281.0,-234.0,-140.0,-94.0,-47.0,-94.0,-47.0,-47.0,47.0,-468.0,0.0,-47.0,0.0,0.0,-94.0,-140.0,234.0,-374.0,468.0,-47.0,-47.0,47.0,0.0,-47.0,47.0,-4258.0,561.0,-515.0,-47.0,47.0,94.0,187.0,94.0,140.0,749.0,-374.0,187.0,-1918.0,0.0,94.0,47.0,-374.0,983.0,-140.0,187.0,0.0,0.0,0.0,0.0,0.0,0.0,0.0,0.0,328.0,0.0,-140.0,94.0,-281.0,94.0,-421.0,47.0,187.0,47.0,-94.0,-187.0,234.0,0.0,0.0,-234.0,-47.0,94.0,140.0,-374.0,0.0,-702.0,468.0,47.0,47.0,47.0,-515.0,234.0,94.0,328.0,-749.0,47.0,-140.0,234.0,47.0,0.0,-889.0,374.0,-47.0,608.0,-47.0,-47.0,-421.0,468.0,-94.0,234.0,-187.0,702.0,187.0,187.0,47.0,-515.0,47.0,-421.0,1029.0,-374.0,234.0,-281.0,468.0,-94.0,94.0,-94.0,234.0,-702.0,0.0,187.0,-187.0,0.0,-140.0,-140.0,-187.0,187.0,-94.0,140.0,187.0,-94.0,-234.0,-94.0,47.0,-140.0,47.0,-94.0,47.0,94.0,47.0,94.0,140.0,421.0,-234.0,187.0,-47.0,-47.0,281.0,-94.0,140.0,-281.0,140.0,47.0,281.0,94.0,-608.0,468.0,-94.0,140.0,47.0,140.0,187.0,-47.0,-94.0,-702.0,468.0,234.0,187.0,234.0,-1778.0,0.0,94.0,0.0,-374.0,468.0,515.0,-842.0,187.0,281.0,-140.0,-655.0,328.0,-983.0,-234.0,-281.0,-187.0,-187.0,-187.0,-281.0,-187.0,-281.0,-94.0,-94.0,-140.0,-140.0,-234.0,0.0,-234.0,-515.0,-94.0,0.0,-140.0,-47.0,-94.0,281.0,94.0,-140.0,94.0,140.0,-94.0,281.0,47.0,515.0,187.0,421.0,-140.0,-47.0,-94.0,-94.0,94.0,-47.0,94.0,187.0,-140.0,0.0,-94.0,-47.0,-140.0,281.0,-1123.0,-94.0,-94.0,-94.0,-234.0,-47.0,-187.0,-608.0,-94.0,187.0,-234.0,-234.0,-234.0,-281.0,-187.0,-47.0,-140.0,-140.0,-234.0,-281.0,-140.0,-374.0,-328.0,-421.0,-515.0,-515.0,-608.0,-94.0,-328.0,-328.0,-374.0,-187.0,-328.0,-47.0,-187.0,-328.0,-234.0,-234.0,0.0,-328.0,-140.0,-374.0,-234.0,-94.0,-140.0,-94.0,-140.0,-94.0,-140.0,-281.0,0.0,-187.0,47.0,-140.0,-94.0,-187.0,0.0,-187.0,-47.0,-94.0,-47.0,-47.0,-281.0,47.0,-328.0,94.0,94.0,-47.0,0.0,-47.0,-140.0,-94.0,-187.0,-94.0,-281.0,-328.0,-47.0,-187.0,-187.0,-94.0,-234.0,47.0,561.0,234.0,94.0,234.0,94.0,234.0,234.0,140.0,234.0,374.0,140.0,374.0,468.0,515.0,187.0,234.0,374.0,374.0,702.0,421.0,749.0,561.0,655.0,187.0,-140.0,749.0,468.0,702.0,795.0,561.0,655.0,608.0,-468.0,608.0,702.0,515.0,795.0,936.0,655.0,749.0,608.0,561.0,655.0,842.0,842.0,1029.0,936.0,702.0,889.0,-983.0,608.0,-1310.0,889.0,-749.0,468.0,702.0,561.0,-328.0,561.0,842.0,795.0,-2106.0,-1310.0,1076.0,0.0,0.0,0.0,0.0,0.0,0.0,0.0,0.0,-187.0,-47.0,187.0,47.0,-140.0,-328.0,0.0,94.0,-47.0,-187.0,234.0,140.0,-468.0,-47.0,-608.0,187.0,47.0,140.0,-187.0,140.0,281.0,281.0,47.0,47.0,47.0,-47.0,47.0,47.0,-187.0,421.0,94.0,-94.0,47.0,-47.0,94.0,-234.0,140.0,-2152.0,234.0,47.0,47.0,-47.0,0.0,-94.0,47.0,187.0,234.0,47.0,0.0,0.0,0.0,0.0,0.0,0.0,0.0,0.0,140.0,-421.0,0.0,234.0,94.0,-94.0,561.0,-1170.0,561.0,515.0,281.0,234.0,0.0,187.0,468.0,47.0,187.0,234.0,187.0,94.0,47.0,-94.0,94.0,234.0,187.0,234.0,421.0,0.0,187.0,94.0,468.0,47.0,328.0,281.0,47.0,421.0,421.0,468.0,281.0,561.0,421.0,140.0,140.0,234.0,328.0,281.0,140.0,281.0,187.0,421.0,328.0,328.0,234.0,140.0,842.0,795.0,-983.0,140.0,187.0,421.0,702.0,561.0,655.0,281.0,374.0,0.0,187.0,-795.0,281.0,-1076.0,-140.0,0.0,328.0,234.0,-281.0,561.0,-281.0,421.0,-47.0,281.0,328.0,-47.0,140.0,-234.0,187.0,-94.0,140.0,-187.0,187.0,374.0,-94.0,374.0,-47.0,374.0,-187.0,749.0,234.0,-140.0,421.0,-140.0,515.0,47.0,749.0,-468.0,94.0,234.0,-47.0,328.0,-281.0,608.0,-374.0,749.0,468.0,-47.0,421.0,0.0,561.0,94.0,795.0,-795.0,0.0,374.0,-47.0,655.0,-421.0,702.0,-187.0,1638.0,468.0,468.0,281.0,468.0,187.0,468.0,328.0,281.0,187.0,328.0,328.0,421.0,187.0,421.0,187.0,187.0,421.0,421.0,374.0,515.0,234.0,421.0,281.0,140.0,374.0,421.0,234.0,328.0,655.0,140.0,328.0,187.0,421.0,281.0,374.0,468.0,234.0,515.0,328.0,94.0,468.0,515.0,281.0,608.0,468.0,187.0,234.0,421.0,328.0,468.0,328.0,374.0,234.0,468.0,374.0,187.0,328.0,281.0,328.0,328.0,328.0,281.0,281.0,234.0,608.0,515.0,515.0,234.0,0.0,421.0,655.0,655.0,561.0,608.0,608.0,608.0,328.0,47.0,702.0,561.0,608.0,749.0,702.0,608.0,515.0,608.0,655.0,515.0,795.0,655.0,655.0,655.0,795.0,702.0,561.0,655.0,608.0,702.0,749.0,655.0,468.0,655.0,655.0,608.0,795.0,749.0,749.0,702.0,702.0,655.0,749.0,749.0,749.0,702.0,655.0,749.0,655.0,749.0,1076.0,702.0,795.0,702.0,702.0,795.0,608.0,795.0,983.0,983.0,468.0,234.0,187.0,468.0,140.0,281.0,281.0,468.0,47.0,0.0,0.0,-94.0,-187.0,-140.0,47.0,-94.0,328.0,-187.0,47.0,-47.0,-140.0,-281.0,-140.0,-187.0,47.0,-94.0,-187.0,140.0,-140.0,-468.0,-187.0,-94.0,0.0,-47.0,-140.0,-187.0,-47.0,-281.0,-234.0,187.0,94.0,234.0,-187.0,-187.0,0.0,-374.0,47.0,140.0,47.0,187.0,187.0,234.0,140.0,374.0,140.0,328.0,47.0,0.0,281.0,0.0,47.0,328.0,234.0,140.0,0.0,0.0,0.0,0.0,0.0,0.0,0.0,0.0,-281.0,-515.0,-561.0,94.0,94.0,140.0,187.0,47.0,-187.0,-842.0,-2012.0,-328.0,47.0,140.0,187.0,94.0,-47.0,-281.0,-515.0,-187.0,0.0,0.0,0.0,0.0,-47.0,-94.0,47.0,-140.0,0.0,-140.0,-187.0,-94.0,-187.0,94.0,-94.0,-187.0,-187.0,-328.0,-281.0,-281.0,-187.0,-140.0,-328.0,-47.0,-515.0,-281.0,-187.0,-281.0,0.0,0.0,0.0,0.0,0.0,0.0,0.0,0.0,-468.0,-421.0,-374.0,-187.0,-328.0,-234.0,-94.0,47.0,-94.0,-468.0,-515.0,-655.0,-468.0,-374.0,-47.0,-281.0,-515.0,-936.0,-749.0,-374.0,-515.0,-421.0,-328.0,-421.0,-515.0,-515.0,-889.0,-515.0,-468.0,-234.0,-328.0,-187.0,-561.0,-515.0,-749.0,-374.0,-328.0,-281.0,-328.0,-187.0,-328.0,-281.0,-515.0,-421.0,-374.0,-281.0,-187.0,-328.0,-281.0,-608.0,-421.0,-187.0,-281.0,-234.0,-47.0,-47.0,-328.0,-328.0,-187.0,-328.0,-234.0,-140.0,0.0,-47.0,-608.0,-421.0,-281.0,-328.0,-515.0,-374.0,-234.0,-140.0,-702.0,-655.0,-655.0,-421.0,-561.0,-374.0,-374.0,-187.0,-234.0,-795.0,-842.0,-515.0,-421.0,-468.0,-281.0,-281.0,-702.0,-702.0,-795.0,-561.0,-468.0,-515.0,-374.0,-187.0,-281.0,-702.0,-795.0,-702.0,-561.0,-702.0,-421.0,-374.0,-468.0,-374.0,-328.0,-608.0,-749.0,-608.0,-515.0,-608.0,-515.0,-328.0,-608.0,-608.0,-749.0,-795.0,-795.0,-608.0,-608.0,-468.0,-421.0,-328.0,-515.0,-889.0,-749.0,-795.0,-234.0,-281.0,-328.0,-328.0,-328.0,-374.0,-328.0,-421.0,-94.0,-234.0,-281.0,-281.0,-281.0,-234.0,-468.0,-281.0,-328.0,-281.0,-515.0,-234.0,-281.0,-281.0,-515.0,-328.0,-328.0,-468.0,-468.0,-374.0,-328.0,-328.0,-281.0,-374.0,-328.0,-374.0,-561.0,-421.0,-328.0,-374.0,-421.0,-234.0,-281.0,-374.0,-468.0,-374.0,-374.0,-374.0,-421.0,-468.0,-328.0,-328.0,-328.0,-328.0,-281.0,-281.0,-561.0,-468.0,-328.0,-374.0,-421.0,-374.0,-374.0,-328.0,-421.0,-468.0,-1029.0,-983.0,-983.0,-983.0,-1029.0,-1076.0,-983.0,-842.0,-749.0,-842.0,-936.0,-936.0,-936.0,-749.0,-795.0,-842.0,-795.0,-889.0,-1170.0,-1029.0,-842.0,-1123.0,-1123.0,-1123.0,-889.0,-889.0,-983.0,-1217.0,-936.0,-936.0,-936.0,-1123.0,-1123.0,-1076.0,-1217.0,-889.0,-1170.0,-1123.0,-1310.0,-1170.0,-1076.0,-1029.0,-1217.0,-1170.0,-1123.0,-1263.0,-1217.0,-936.0,-1076.0,-1123.0,-1123.0,-1170.0,-1123.0,-1170.0,-1123.0,-1263.0,-1263.0,-1076.0,-1123.0,-1497.0,-1217.0,-889.0,-1170.0,-1170.0,-374.0,-234.0,-47.0,94.0,187.0,468.0,561.0,561.0,-328.0,-421.0,-234.0,47.0,281.0,468.0,468.0,515.0,-328.0,-655.0,-515.0,94.0,281.0,468.0,374.0,468.0,-94.0,-281.0,-1076.0,281.0,281.0,421.0,468.0,421.0,328.0,140.0,-47.0,47.0,421.0,515.0,421.0,561.0,608.0,328.0,328.0,468.0,468.0,561.0,515.0,608.0,234.0,561.0,328.0,515.0,608.0,655.0,608.0,608.0,47.0,374.0,281.0,655.0,561.0,608.0,561.0,374.0,0.0,0.0,0.0,0.0,0.0,0.0,0.0,0.0,374.0,374.0,515.0,421.0,281.0,94.0,328.0,-187.0,561.0,983.0,842.0,655.0,281.0,187.0,-140.0,-47.0,561.0,983.0,795.0,374.0,234.0,-94.0,47.0,-94.0,281.0,702.0,842.0,234.0,0.0,0.0,-94.0,-187.0,187.0,187.0,234.0,281.0,94.0,-94.0,-47.0,0.0,94.0,187.0,47.0,94.0,94.0,0.0,-94.0,47.0,0.0,0.0,0.0,0.0,0.0,0.0,0.0,0.0,842.0,655.0,608.0,374.0,561.0,281.0,515.0,-1217.0,561.0,468.0,468.0,421.0,374.0,421.0,328.0,608.0,749.0,655.0,515.0,374.0,234.0,374.0,374.0,421.0,515.0,421.0,421.0,421.0,421.0,328.0,281.0,-47.0,702.0,608.0,608.0,281.0,468.0,281.0,281.0,281.0,140.0,561.0,561.0,421.0,468.0,187.0,140.0,94.0,47.0,421.0,328.0,421.0,140.0,328.0,-94.0,374.0,234.0,140.0,374.0,374.0,187.0,234.0,47.0,47.0,515.0,515.0,468.0,468.0,374.0,515.0,328.0,-234.0,983.0,515.0,561.0,561.0,374.0,515.0,328.0,515.0,328.0,702.0,561.0,515.0,374.0,515.0,374.0,421.0,655.0,328.0,374.0,561.0,561.0,468.0,234.0,468.0,421.0,515.0,328.0,561.0,515.0,421.0,374.0,234.0,468.0,234.0,421.0,468.0,608.0,468.0,374.0,468.0,234.0,328.0,515.0,421.0,515.0,655.0,468.0,608.0,187.0,234.0,140.0,515.0,328.0,468.0,608.0,655.0,421.0,515.0,468.0,421.0,421.0,421.0,328.0,515.0,421.0,468.0,515.0,515.0,468.0,515.0,468.0,468.0,515.0,468.0,468.0,515.0,421.0,421.0,234.0,421.0,561.0,561.0,374.0,515.0,468.0,468.0,374.0,374.0,515.0,515.0,468.0,515.0,374.0,468.0,328.0,468.0,515.0,421.0,468.0,561.0,421.0,374.0,515.0,374.0,515.0,561.0,468.0,468.0,374.0,468.0,374.0,608.0,468.0,374.0,468.0,515.0,421.0,328.0,328.0,234.0,515.0,515.0,655.0,889.0,749.0,889.0,655.0,655.0,655.0,515.0,749.0,842.0,795.0,749.0,608.0,983.0,328.0,421.0,889.0,842.0,702.0,468.0,515.0,889.0,795.0,795.0,608.0,889.0,749.0,936.0,561.0,702.0,561.0,889.0,889.0,749.0,655.0,655.0,515.0,421.0,749.0,655.0,702.0,702.0,749.0,749.0,749.0,561.0,655.0,749.0,608.0,655.0,515.0,749.0,468.0,374.0,655.0,515.0,655.0,655.0,702.0,281.0,234.0,795.0,1638.0,1263.0,1310.0,1170.0,1029.0,608.0,702.0,0.0,1404.0,1404.0,1310.0,1263.0,1076.0,842.0,842.0,281.0,1263.0,1310.0,1357.0,1170.0,1076.0,983.0,795.0,655.0,1170.0,1217.0,1123.0,1123.0,889.0,889.0,374.0,421.0,1170.0,1076.0,1170.0,983.0,795.0,561.0,328.0,187.0,1029.0,1076.0,983.0,889.0,702.0,561.0,374.0,374.0,983.0,795.0,842.0,749.0,561.0,515.0,515.0,421.0,702.0,608.0,515.0,561.0,328.0,515.0,421.0,468.0,0.0,0.0,0.0,0.0,0.0,0.0,0.0,0.0,281.0,-1217.0,187.0,281.0,234.0,328.0,328.0,234.0,515.0,47.0,140.0,140.0,281.0,281.0,328.0,234.0,655.0,889.0,234.0,140.0,187.0,281.0,374.0,281.0,515.0,-561.0,421.0,281.0,234.0,234.0,328.0,374.0,702.0,328.0,281.0,328.0,281.0,140.0,421.0,468.0,702.0,-187.0,47.0,515.0,140.0,0.0,0.0,328.0,0.0,0.0,0.0,0.0,0.0,0.0,0.0,0.0,281.0,-140.0,-47.0,94.0,-187.0,-94.0,0.0,561.0,-702.0,-234.0,-234.0,94.0,-94.0,140.0,-140.0,187.0,328.0,328.0,47.0,140.0,0.0,0.0,140.0,94.0,0.0,0.0,140.0,94.0,187.0,47.0,94.0,47.0,-47.0,-281.0,47.0,187.0,0.0,234.0,47.0,187.0,-234.0,140.0,0.0,187.0,94.0,328.0,47.0,140.0,47.0,94.0,140.0,94.0,-47.0,47.0,187.0,0.0,561.0,0.0,0.0,-47.0,187.0,94.0,234.0,281.0,140.0,94.0,0.0,47.0,-94.0,47.0,94.0,-795.0,0.0,-47.0,187.0,47.0,140.0,0.0,140.0,-94.0,-374.0,47.0,-94.0,140.0,94.0,94.0,0.0,0.0,234.0,140.0,140.0,94.0,140.0,140.0,94.0,140.0,-1497.0,47.0,187.0,187.0,0.0,140.0,140.0,47.0,234.0,0.0,140.0,0.0,47.0,94.0,94.0,47.0,94.0,94.0,-140.0,94.0,0.0,47.0,140.0,0.0,0.0,47.0,94.0,-187.0,-140.0,47.0,94.0,-94.0,421.0,655.0,515.0,468.0,468.0,421.0,515.0,468.0,608.0,655.0,515.0,515.0,421.0,468.0,374.0,374.0,561.0,374.0,421.0,421.0,421.0,328.0,468.0,468.0,328.0,561.0,374.0,468.0,468.0,468.0,234.0,421.0,561.0,374.0,561.0,561.0,561.0,561.0,561.0,702.0,374.0,608.0,515.0,468.0,561.0,561.0,608.0,561.0,468.0,515.0,561.0,561.0,608.0,515.0,561.0,561.0,374.0,515.0,561.0,421.0,515.0,468.0,515.0,468.0,889.0,795.0,842.0,655.0,795.0,795.0,515.0,842.0,795.0,795.0,795.0,749.0,842.0,608.0,608.0,983.0,795.0,936.0,795.0,889.0,795.0,749.0,749.0,655.0,749.0,889.0,795.0,889.0,749.0,749.0,749.0,795.0,702.0,655.0,842.0,749.0,889.0,702.0,608.0,468.0,842.0,655.0,655.0,702.0,702.0,608.0,749.0,842.0,655.0,749.0,702.0,842.0,702.0,655.0,749.0,702.0,749.0,795.0,842.0,842.0,749.0,702.0,936.0,749.0,-140.0,-47.0,140.0,187.0,47.0,94.0,140.0,187.0,-47.0,234.0,281.0,281.0,187.0,281.0,234.0,234.0,140.0,328.0,328.0,281.0,234.0,187.0,234.0,140.0,234.0,281.0,281.0,328.0,234.0,234.0,187.0,187.0,234.0,234.0,187.0,234.0,281.0,234.0,140.0,234.0,328.0,234.0,187.0,140.0,94.0,140.0,281.0,94.0,0.0,140.0,187.0,187.0,-47.0,187.0,0.0,47.0,-187.0,0.0,0.0,-94.0,47.0,47.0,-47.0,0.0,0.0,0.0,0.0,0.0,0.0,0.0,0.0,0.0,-421.0,-702.0,-608.0,-187.0,-561.0,-234.0,-421.0,-608.0,-702.0,-1310.0,-1638.0,-187.0,-561.0,-94.0,-468.0,-234.0,-234.0,-3182.0,-94.0,-187.0,-140.0,-140.0,-187.0,-234.0,-936.0,-1451.0,-140.0,-187.0,-140.0,-187.0,-187.0,-234.0,-655.0,-655.0,-281.0,-234.0,-94.0,-281.0,-234.0,-234.0,-608.0,-515.0,-234.0,-281.0,-140.0,-234.0,-234.0,-140.0,0.0,0.0,0.0,0.0,0.0,0.0,0.0,0.0,47.0,-468.0,234.0,187.0,281.0,-94.0,-94.0,140.0,-47.0,234.0,94.0,47.0,-187.0,47.0,-234.0,-187.0,-94.0,281.0,-47.0,187.0,140.0,140.0,94.0,47.0,328.0,187.0,-94.0,94.0,140.0,-47.0,140.0,0.0,328.0,-328.0,0.0,0.0,47.0,47.0,47.0,-47.0,655.0,140.0,234.0,0.0,47.0,47.0,47.0,140.0,94.0,421.0,-47.0,94.0,140.0,140.0,187.0,47.0,140.0,234.0,281.0,94.0,94.0,-47.0,187.0,94.0,94.0,0.0,47.0,-140.0,-47.0,-234.0,47.0,0.0,-140.0,-94.0,0.0,-47.0,-140.0,0.0,47.0,94.0,234.0,94.0,94.0,-94.0,-94.0,-94.0,0.0,-47.0,-374.0,-47.0,0.0,47.0,-47.0,0.0,-47.0,0.0,-234.0,-328.0,47.0,-94.0,0.0,0.0,-94.0,47.0,-140.0,0.0,-94.0,0.0,-94.0,0.0,94.0,47.0,94.0,-47.0,47.0,-94.0,0.0,47.0,-47.0,-94.0,0.0,94.0,-140.0,-94.0,47.0,0.0,47.0,94.0,-702.0,-515.0,-468.0,-421.0,-421.0,-515.0,-515.0,-515.0,-842.0,-421.0,-515.0,-374.0,-515.0,-421.0,-842.0,-374.0,-749.0,-702.0,-515.0,-608.0,-515.0,-468.0,-515.0,-468.0,-468.0,-281.0,-561.0,-374.0,-421.0,-421.0,-281.0,-374.0,-515.0,-187.0,-374.0,-281.0,-328.0,-374.0,-421.0,-374.0,-281.0,-374.0,-328.0,-421.0,-328.0,-234.0,-234.0,-374.0,-374.0,-374.0,-374.0,-328.0,-374.0,-374.0,-328.0,-281.0,-515.0,-468.0,-515.0,-421.0,-374.0,-421.0,-374.0,-374.0,-889.0,-1029.0,-1217.0,-889.0,-1123.0,-795.0,-1263.0,-1310.0,-936.0,-1123.0,-608.0,-936.0,-983.0,-1497.0,-1217.0,-983.0,-795.0,-795.0,-842.0,-749.0,-1076.0,-795.0,-1076.0,-936.0,-795.0,-655.0,-655.0,-749.0,-749.0,-795.0,-842.0,-842.0,-983.0,-842.0,-749.0,-749.0,-702.0,-655.0,-702.0,-795.0,-749.0,-655.0,-655.0,-655.0,-702.0,-795.0,-749.0,-608.0,-655.0,-749.0,-702.0,-655.0,-795.0,-749.0,-749.0,-608.0,-795.0,-795.0,-702.0,-749.0,-702.0,-561.0,-702.0,-936.0,561.0,421.0,328.0,468.0,94.0,374.0,94.0,468.0,842.0,234.0,374.0,234.0,281.0,0.0,47.0,281.0,515.0,281.0,234.0,234.0,47.0,47.0,0.0,47.0,-47.0,234.0,187.0,94.0,94.0,-140.0,0.0,47.0,-140.0,-749.0,234.0,94.0,140.0,140.0,94.0,94.0,-140.0,94.0,140.0,140.0,94.0,47.0,47.0,94.0,-47.0,94.0,187.0,47.0,94.0,94.0,94.0,47.0,47.0,140.0,140.0,47.0,140.0,140.0,47.0,0.0,0.0,0.0,0.0,0.0,0.0,0.0,0.0,0.0,-140.0,187.0,94.0,234.0,281.0,-281.0,-749.0,-234.0,-421.0,842.0,-608.0,0.0,-468.0,-187.0,-47.0,140.0,468.0,94.0,-140.0,-515.0,-749.0,-281.0,-140.0,47.0,936.0,-1263.0,468.0,-2667.0,-281.0,94.0,-515.0,0.0,1029.0,-281.0,1310.0,-1310.0,374.0,-842.0,0.0,-234.0,842.0,983.0,655.0,-328.0,655.0,1029.0,-795.0,-2480.0,0.0,0.0,0.0,0.0,0.0,0.0,0.0,0.0,328.0,281.0,374.0,374.0,515.0,421.0,187.0,-3182.0,421.0,-234.0,140.0,374.0,0.0,-94.0,374.0,515.0,374.0,187.0,328.0,94.0,94.0,187.0,94.0,421.0,-94.0,-421.0,-94.0,140.0,-187.0,0.0,-140.0,234.0,1357.0,281.0,-421.0,-281.0,-47.0,-187.0,47.0,234.0,-328.0,421.0,842.0,-234.0,-374.0,234.0,468.0,328.0,-234.0,-234.0,234.0,-655.0,234.0,749.0,515.0,-47.0,842.0,561.0,234.0,561.0,187.0,-47.0,-94.0,936.0,-608.0,936.0,-234.0,983.0,-94.0,-421.0,-374.0,-515.0,515.0,-468.0,702.0,-281.0,468.0,-234.0,-561.0,-94.0,-468.0,-94.0,-187.0,328.0,-234.0,-281.0,140.0,-421.0,561.0,-187.0,0.0,-187.0,-47.0,-47.0,140.0,0.0,-515.0,-47.0,-655.0,94.0,-94.0,140.0,-187.0,187.0,608.0,-1357.0,655.0,-468.0,468.0,281.0,234.0,-281.0,-795.0,-374.0,0.0,842.0,187.0,795.0,0.0,328.0,47.0,374.0,-47.0,47.0,-47.0,-140.0,140.0,-1029.0,0.0,0.0,-187.0,-47.0,-234.0,-374.0,-655.0,-889.0,468.0,374.0,-281.0,-140.0,-468.0,-515.0,-795.0,-702.0,374.0,94.0,-234.0,-187.0,-140.0,-234.0,-702.0,-374.0,47.0,374.0,-515.0,-655.0,-94.0,-515.0,-47.0,-608.0,842.0,-702.0,-468.0,-468.0,234.0,-328.0,47.0,-328.0,-328.0,94.0,-608.0,-795.0,94.0,-328.0,-515.0,468.0,140.0,-655.0,-795.0,0.0,0.0,-47.0,0.0,187.0,47.0,-561.0,-94.0,-140.0,-328.0,-421.0,-561.0,-1076.0,421.0,-140.0,374.0,94.0,0.0,0.0,-374.0,-421.0,-47.0,94.0,374.0,234.0,47.0,-94.0,-140.0,-94.0,234.0,187.0,421.0,0.0,94.0,140.0,187.0,47.0,0.0,234.0,-234.0,-187.0,-94.0,234.0,-421.0,-328.0,281.0,187.0,140.0,374.0,-94.0,281.0,187.0,-140.0,-468.0,0.0,-374.0,-421.0,281.0,421.0,702.0,187.0,468.0,-94.0,-94.0,-281.0,0.0,421.0,234.0,-47.0,-140.0,-515.0,468.0,-608.0,-187.0,468.0,-655.0,-140.0,-47.0,328.0,328.0,561.0,702.0,-47.0,-47.0,-47.0,-187.0,-140.0,468.0,515.0,515.0,94.0,-94.0,94.0,795.0,889.0,328.0,842.0,515.0,468.0,234.0,-94.0,281.0,-94.0,889.0,468.0,328.0,655.0,328.0,1310.0,-187.0,983.0,281.0,795.0,515.0,-608.0,374.0,328.0,515.0,0.0,1076.0,187.0,795.0,-468.0,-374.0,-795.0,936.0,468.0,1076.0,749.0,-94.0,-47.0,234.0,-1684.0,-702.0,1591.0,-328.0,702.0,889.0,-1872.0,-702.0,-47.0,0.0,0.0,0.0,0.0,0.0,0.0,0.0,0.0,608.0,187.0,234.0,234.0,140.0,515.0,468.0,140.0,1310.0,983.0,608.0,936.0,-187.0,-94.0,234.0,234.0,421.0,-234.0,281.0,-94.0,-47.0,-47.0,-234.0,-889.0,374.0,515.0,0.0,374.0,-47.0,140.0,0.0,0.0,608.0,-281.0,-234.0,-94.0,-140.0,47.0,47.0,234.0,47.0,140.0,-187.0,515.0,-140.0,-234.0,-187.0,140.0,0.0,0.0,0.0,0.0,0.0,0.0,0.0,0.0,-187.0,1404.0,608.0,-234.0,936.0,-140.0,561.0,328.0,1170.0,281.0,889.0,702.0,983.0,795.0,234.0,94.0,-561.0,1123.0,1123.0,983.0,983.0,889.0,608.0,374.0,234.0,1170.0,702.0,795.0,702.0,842.0,889.0,515.0,655.0,889.0,187.0,749.0,374.0,702.0,702.0,749.0,936.0,-94.0,983.0,234.0,515.0,608.0,234.0,421.0,1123.0,702.0,328.0,234.0,655.0,749.0,94.0,936.0,655.0,889.0,561.0,936.0,561.0,702.0,936.0,-94.0,-515.0,1451.0,-561.0,1217.0,1451.0,140.0,468.0,1263.0,-655.0,842.0,655.0,936.0,749.0,608.0,374.0,-234.0,1217.0,1217.0,1170.0,889.0,795.0,281.0,936.0,234.0,374.0,1029.0,-234.0,47.0,749.0,795.0,421.0,795.0,1357.0,983.0,749.0,515.0,328.0,421.0,702.0,421.0,187.0,842.0,94.0,608.0,328.0,702.0,749.0,795.0,608.0,515.0,515.0,328.0,515.0,515.0,374.0,842.0,1263.0,1310.0,140.0,702.0,468.0,515.0,515.0,1123.0,374.0,561.0,561.0,983.0,1123.0,983.0,842.0,1357.0,234.0,749.0,983.0,1263.0,1029.0,983.0,655.0,795.0,795.0,561.0,749.0,889.0,1076.0,1123.0,983.0,889.0,608.0,187.0,1357.0,749.0,983.0,1076.0,889.0,655.0,561.0,936.0,936.0,889.0,1170.0,1076.0,889.0,1076.0,515.0,749.0,561.0,983.0,889.0,608.0,561.0,94.0,-608.0,374.0,561.0,795.0,842.0,983.0,749.0,-374.0,94.0,468.0,702.0,702.0,842.0,749.0,842.0,515.0,1076.0,889.0,1029.0,1076.0,1123.0,1170.0,1170.0,1544.0,936.0,1123.0,1263.0,1544.0,1310.0,1684.0,1310.0,1778.0,1076.0,889.0,1404.0,1170.0,1263.0,1170.0,1918.0,1263.0,1076.0,889.0,1263.0,983.0,1170.0,1310.0,1263.0,1263.0,983.0,1123.0,1263.0,1217.0,1497.0,1404.0,1357.0,1217.0,561.0,1170.0,983.0,1076.0,1497.0,1310.0,1451.0,1170.0,889.0,1076.0,1310.0,983.0,1123.0,1076.0,1310.0,1263.0,1310.0,842.0,1217.0,749.0,842.0,1076.0,936.0,889.0,842.0,374.0,561.0,842.0,1123.0,1357.0,421.0,328.0,702.0,1029.0,655.0,749.0,1591.0,1029.0,1123.0,983.0,749.0,1310.0,795.0,749.0,1170.0,1029.0,561.0,936.0,702.0,515.0,889.0,749.0,655.0,468.0,795.0,983.0,1123.0,936.0,842.0,842.0,374.0,421.0,608.0,374.0,-983.0,842.0,94.0,889.0,515.0,889.0,608.0,234.0,608.0,328.0,842.0,608.0,234.0,140.0,281.0,187.0,983.0,702.0,328.0,468.0,0.0,468.0,187.0,374.0,0.0,0.0,0.0,0.0,0.0,0.0,0.0,0.0,94.0,-47.0,0.0,-374.0,140.0,-187.0,234.0,374.0,187.0,281.0,140.0,94.0,140.0,-328.0,140.0,94.0,47.0,0.0,47.0,-47.0,-234.0,-140.0,-842.0,234.0,234.0,47.0,94.0,328.0,-374.0,-889.0,-421.0,-234.0,-47.0,-47.0,-140.0,374.0,-140.0,-187.0,-281.0,-47.0,47.0,-1076.0,-515.0,94.0,-795.0,-328.0,-281.0,-2386.0,0.0,0.0,0.0,0.0,0.0,0.0,0.0,0.0,374.0,-94.0,374.0,-187.0,140.0,-234.0,-281.0,187.0,94.0,328.0,94.0,-234.0,47.0,-281.0,234.0,-140.0,-94.0,-94.0,-47.0,-94.0,-281.0,-94.0,47.0,-140.0,-187.0,187.0,0.0,-187.0,-421.0,281.0,-421.0,234.0,0.0,234.0,140.0,94.0,-47.0,-234.0,-187.0,140.0,234.0,234.0,0.0,94.0,-94.0,-374.0,0.0,-374.0,-47.0,-187.0,328.0,187.0,94.0,187.0,374.0,94.0,421.0,234.0,-140.0,234.0,-140.0,-140.0,421.0,-1123.0,-94.0,-47.0,-281.0,234.0,-94.0,0.0,-47.0,94.0,234.0,-47.0,0.0,-328.0,-140.0,94.0,234.0,-187.0,47.0,0.0,47.0,-140.0,47.0,-281.0,-140.0,-936.0,374.0,-281.0,94.0,-187.0,-328.0,187.0,-561.0,140.0,-187.0,187.0,-187.0,515.0,187.0,-608.0,-187.0,94.0,374.0,-187.0,421.0,-140.0,-1123.0,-468.0,-234.0,-140.0,-187.0,234.0,-795.0,-795.0,328.0,187.0,47.0,-94.0,234.0,234.0,140.0,-140.0,-94.0,-94.0,-515.0,47.0,140.0,140.0,187.0,94.0,187.0,94.0,328.0,515.0,0.0,-47.0,187.0,-187.0,47.0,-47.0,187.0,655.0,515.0,187.0,281.0,187.0,281.0,234.0,328.0,328.0,281.0,187.0,234.0,94.0,281.0,47.0,187.0,47.0,234.0,94.0,187.0,94.0,140.0,-187.0,-234.0,94.0,187.0,-281.0,140.0,94.0,-608.0,-702.0,-47.0,-1029.0,-187.0,-234.0,0.0,-281.0,-421.0,-187.0,-234.0,-281.0,-47.0,0.0,-1263.0,-468.0,47.0,94.0,-94.0,-328.0,515.0,655.0,561.0,561.0,889.0,655.0,1123.0,889.0,702.0,561.0,561.0,608.0,749.0,655.0,702.0,1170.0,655.0,608.0,655.0,655.0,702.0,842.0,1076.0,889.0,421.0,468.0,515.0,374.0,515.0,842.0,608.0,983.0,515.0,608.0,608.0,795.0,328.0,328.0,561.0,421.0,889.0,468.0,515.0,234.0,-47.0,-421.0,140.0,468.0,374.0,655.0,328.0,47.0,140.0,-234.0,374.0,281.0,795.0,655.0,-140.0,281.0,140.0,-140.0,281.0,234.0,-1404.0,-1357.0,-936.0,-187.0,-1170.0,-140.0,-655.0,-702.0,-515.0,-2340.0,-889.0,-515.0,655.0,-47.0,47.0,-328.0,-1123.0,-1217.0,-842.0,702.0,1310.0,1825.0,1825.0,1404.0,187.0,234.0,1591.0,1638.0,2340.0,2386.0,2152.0,2573.0,-1029.0,1123.0,-281.0,2059.0,2059.0,2059.0,2527.0,2340.0,1170.0,-1076.0,-468.0,-1497.0,47.0,1872.0,-1451.0,1544.0,187.0,-608.0,983.0,-1731.0,-2106.0,-1591.0,-1357.0,-1170.0,515.0,515.0,-795.0,-936.0,-187.0,-1965.0,-749.0,-140.0,0.0,0.0,0.0,0.0,0.0,0.0,0.0,0.0,0.0,281.0,281.0,515.0,374.0,281.0,515.0,515.0,94.0,234.0,187.0,140.0,-468.0,47.0,-234.0,-187.0,-47.0,0.0,234.0,94.0,281.0,-47.0,-515.0,515.0,-47.0,94.0,-47.0,94.0,-140.0,-795.0,374.0,-47.0,-140.0,-94.0,140.0,-94.0,-328.0,234.0,-281.0,-328.0,-94.0,-47.0,-140.0,-468.0,234.0,47.0,-140.0,-234.0,0.0,0.0,0.0,0.0,0.0,0.0,0.0,0.0,749.0,-655.0,655.0,281.0,281.0,94.0,421.0,749.0,421.0,-281.0,561.0,655.0,561.0,702.0,936.0,561.0,0.0,-140.0,515.0,328.0,889.0,281.0,421.0,0.0,-94.0,328.0,468.0,328.0,655.0,702.0,608.0,655.0,421.0,608.0,0.0,561.0,328.0,702.0,328.0,936.0,140.0,47.0,187.0,281.0,94.0,421.0,515.0,749.0,328.0,374.0,374.0,-47.0,468.0,515.0,842.0,374.0,-281.0,94.0,140.0,0.0,515.0,374.0,421.0,421.0,-140.0,608.0,-328.0,749.0,468.0,795.0,749.0,1310.0,94.0,94.0,234.0,328.0,608.0,374.0,889.0,468.0,94.0,281.0,234.0,94.0,234.0,374.0,608.0,842.0,140.0,187.0,515.0,94.0,515.0,515.0,515.0,328.0,234.0,47.0,374.0,468.0,374.0,187.0,187.0,749.0,515.0,328.0,468.0,468.0,328.0,94.0,47.0,468.0,187.0,187.0,515.0,608.0,328.0,-187.0,-140.0,655.0,-187.0,655.0,795.0,421.0,281.0,140.0,47.0,468.0,328.0,515.0,608.0,515.0,795.0,889.0,749.0,889.0,281.0,328.0,374.0,561.0,608.0,749.0,795.0,702.0,140.0,749.0,655.0,983.0,889.0,889.0,842.0,655.0,234.0,140.0,515.0,702.0,889.0,608.0,561.0,749.0,515.0,281.0,281.0,795.0,515.0,515.0,842.0,795.0,515.0,328.0,328.0,374.0,374.0,842.0,842.0,795.0,234.0,281.0,0.0,94.0,281.0,561.0,655.0,842.0,140.0,140.0,187.0,328.0,374.0,328.0,702.0,561.0,187.0,561.0,1029.0,842.0,1263.0,1170.0,795.0,889.0,421.0,608.0,1029.0,1029.0,936.0,1076.0,1310.0,983.0,842.0,-47.0,936.0,1404.0,1357.0,1872.0,1731.0,1591.0,561.0,655.0,1076.0,1404.0,1544.0,1731.0,1591.0,1451.0,1170.0,749.0,1123.0,1591.0,1544.0,1544.0,1684.0,1778.0,1123.0,1310.0,1123.0,1497.0,1638.0,1638.0,1684.0,1872.0,1263.0,1076.0,1404.0,1638.0,1451.0,1544.0,1451.0,1638.0,515.0,1497.0,1638.0,1404.0,1684.0,1544.0,889.0,1731.0,-187.0,-468.0,140.0,-47.0,-94.0,-468.0,-983.0,-983.0,47.0,-421.0,-749.0,-140.0,-47.0,0.0,-468.0,-328.0,-328.0,-47.0,-281.0,-281.0,140.0,-94.0,47.0,-47.0,-421.0,-421.0,-187.0,-140.0,140.0,94.0,-47.0,0.0,-140.0,-1029.0,-936.0,-94.0,-47.0,-561.0,-140.0,-421.0,47.0,-328.0,-47.0,187.0,0.0,187.0,0.0,0.0,187.0,94.0,0.0,234.0,234.0,515.0,281.0,140.0,374.0,234.0,234.0,328.0,140.0,515.0,234.0,281.0,0.0,0.0,0.0,0.0,0.0,0.0,0.0,0.0,-328.0,-702.0,-281.0,94.0,140.0,-47.0,-187.0,-234.0,-328.0,-795.0,-281.0,-140.0,-94.0,-47.0,-187.0,-140.0,-421.0,-328.0,-328.0,-94.0,-47.0,-140.0,-421.0,-140.0,-608.0,-468.0,140.0,0.0,-94.0,-187.0,-328.0,-140.0,-1029.0,-374.0,468.0,515.0,328.0,0.0,-749.0,-94.0,-842.0,-795.0,-140.0,-94.0,281.0,140.0,-234.0,-328.0,0.0,0.0,0.0,0.0,0.0,0.0,0.0,0.0,328.0,-140.0,187.0,47.0,-234.0,-515.0,-281.0,-468.0,655.0,234.0,94.0,94.0,-234.0,-187.0,-561.0,-374.0,561.0,187.0,0.0,187.0,-47.0,-187.0,-374.0,-140.0,608.0,655.0,281.0,281.0,-47.0,-281.0,-702.0,-515.0,983.0,328.0,561.0,187.0,281.0,-328.0,-281.0,-468.0,795.0,515.0,842.0,421.0,281.0,-515.0,-281.0,-3837.0,889.0,842.0,749.0,515.0,234.0,94.0,-1170.0,-1731.0,1123.0,1123.0,-1123.0,608.0,234.0,-2527.0,-1217.0,421.0,-94.0,-281.0,-234.0,-328.0,-281.0,187.0,-47.0,608.0,-328.0,-234.0,-421.0,-94.0,94.0,281.0,140.0,0.0,-94.0,-328.0,-94.0,140.0,140.0,94.0,-187.0,-94.0,47.0,94.0,0.0,140.0,234.0,47.0,47.0,234.0,421.0,281.0,515.0,187.0,187.0,-47.0,-140.0,-47.0,702.0,655.0,515.0,328.0,47.0,-234.0,-187.0,-749.0,608.0,374.0,374.0,608.0,421.0,-140.0,-608.0,281.0,468.0,-281.0,234.0,655.0,-187.0,140.0,47.0,0.0,421.0,795.0,515.0,187.0,47.0,47.0,-328.0,-281.0,515.0,608.0,281.0,94.0,-94.0,-47.0,-655.0,-561.0,889.0,702.0,702.0,468.0,328.0,47.0,-328.0,-281.0,842.0,889.0,468.0,515.0,-94.0,0.0,-421.0,-47.0,983.0,889.0,749.0,889.0,374.0,-234.0,-374.0,140.0,983.0,1029.0,936.0,1029.0,795.0,94.0,-281.0,140.0,889.0,702.0,795.0,889.0,702.0,655.0,0.0,374.0,1076.0,936.0,842.0,702.0,842.0,561.0,515.0,234.0,1544.0,1638.0,1263.0,1263.0,1263.0,1029.0,889.0,94.0,1731.0,1638.0,1451.0,1217.0,1310.0,1170.0,655.0,187.0,1965.0,1544.0,1404.0,1404.0,1310.0,1217.0,936.0,795.0,1872.0,1872.0,1451.0,1684.0,1263.0,1029.0,655.0,702.0,2012.0,1965.0,1591.0,1451.0,1404.0,1029.0,468.0,983.0,2152.0,2246.0,1918.0,1684.0,1497.0,889.0,515.0,983.0,2106.0,1825.0,1872.0,1404.0,1217.0,1029.0,936.0,-94.0,1872.0,1778.0,1310.0,1497.0,1170.0,1263.0,1076.0,94.0,0.0,94.0,-94.0,-281.0,-187.0,-468.0,-187.0,-94.0,-187.0,94.0,-187.0,-47.0,47.0,-140.0,-281.0,-187.0,-234.0,-187.0,-234.0,-94.0,-234.0,-234.0,-468.0,-468.0,-281.0,-94.0,-47.0,-94.0,-234.0,-561.0,-795.0,-374.0,187.0,140.0,187.0,-234.0,-374.0,-421.0,-281.0,-421.0,187.0,94.0,0.0,-47.0,-281.0,-468.0,-468.0,-702.0,-94.0,-281.0,-328.0,-140.0,-749.0,-421.0,-515.0,-468.0,140.0,-140.0,-140.0,94.0,-749.0,-749.0,-421.0,-515.0,0.0,0.0,0.0,0.0,0.0,0.0,0.0,0.0,-47.0,-1451.0,187.0,468.0,515.0,281.0,234.0,374.0,-94.0,-94.0,140.0,515.0,328.0,94.0,468.0,281.0,-515.0,-140.0,-234.0,-47.0,94.0,140.0,187.0,140.0,-561.0,-561.0,-187.0,-140.0,140.0,187.0,234.0,187.0,-842.0,-1029.0,-234.0,281.0,374.0,328.0,374.0,281.0,-1123.0,-1217.0,-234.0,0.0,842.0,421.0,561.0,140.0,0.0,0.0,0.0,0.0,0.0,0.0,0.0,0.0,1591.0,795.0,889.0,421.0,608.0,655.0,1451.0,1217.0,1123.0,0.0,-374.0,561.0,655.0,374.0,655.0,608.0,374.0,-515.0,-187.0,47.0,281.0,561.0,702.0,1076.0,-187.0,140.0,47.0,-47.0,234.0,468.0,468.0,468.0,-47.0,0.0,0.0,0.0,47.0,561.0,608.0,795.0,140.0,-47.0,140.0,187.0,374.0,515.0,795.0,936.0,374.0,0.0,187.0,140.0,374.0,608.0,608.0,1170.0,608.0,47.0,187.0,328.0,468.0,561.0,702.0,-889.0,515.0,47.0,468.0,187.0,561.0,47.0,-749.0,281.0,374.0,468.0,140.0,374.0,515.0,749.0,234.0,983.0,655.0,-140.0,0.0,-47.0,655.0,187.0,515.0,281.0,94.0,421.0,140.0,140.0,234.0,655.0,281.0,749.0,234.0,140.0,187.0,-187.0,421.0,187.0,608.0,421.0,-140.0,0.0,0.0,374.0,187.0,608.0,421.0,561.0,140.0,-328.0,328.0,187.0,515.0,515.0,749.0,421.0,140.0,328.0,94.0,234.0,421.0,561.0,468.0,608.0,140.0,234.0,421.0,468.0,234.0,468.0,608.0,702.0,328.0,328.0,374.0,468.0,515.0,515.0,749.0,561.0,-140.0,374.0,234.0,515.0,655.0,749.0,702.0,655.0,94.0,234.0,374.0,561.0,608.0,421.0,608.0,795.0,94.0,187.0,374.0,468.0,561.0,702.0,655.0,889.0,47.0,468.0,515.0,468.0,655.0,608.0,889.0,842.0,140.0,140.0,374.0,608.0,749.0,936.0,889.0,749.0,187.0,140.0,608.0,842.0,936.0,842.0,795.0,936.0,1076.0,702.0,655.0,608.0,561.0,795.0,1123.0,1263.0,889.0,655.0,795.0,608.0,795.0,608.0,1029.0,1217.0,1029.0,702.0,608.0,655.0,655.0,842.0,983.0,795.0,795.0,749.0,421.0,468.0,655.0,842.0,889.0,842.0,795.0,936.0,702.0,655.0,655.0,749.0,749.0,889.0,515.0,655.0,702.0,749.0,749.0,936.0,889.0,842.0,1123.0,795.0,608.0,749.0,795.0,936.0,795.0,702.0,1123.0,983.0,795.0,795.0,889.0,936.0,1217.0,795.0,983.0,749.0,-515.0,-1029.0,-889.0,-561.0,0.0,-1170.0,-234.0,515.0,655.0,561.0,374.0,-1872.0,-515.0,-328.0,936.0,608.0,655.0,702.0,-889.0,-1263.0,-1684.0,-1684.0,1217.0,561.0,655.0,749.0,281.0,-234.0,-1263.0,-983.0,1123.0,1029.0,889.0,561.0,421.0,-1123.0,-1357.0,-1357.0,1076.0,1123.0,983.0,795.0,-561.0,-1825.0,-2620.0,-2152.0,1497.0,1123.0,983.0,468.0,-889.0,-2152.0,-2948.0,-3135.0,1123.0,1217.0,1170.0,608.0,-1731.0,-2573.0,-3743.0,-3135.0,0.0,0.0,0.0,0.0,0.0,0.0,0.0,0.0,-234.0,-140.0,140.0,328.0,47.0,47.0,-94.0,-94.0,-281.0,140.0,-47.0,281.0,-281.0,94.0,-140.0,-94.0,-234.0,47.0,47.0,94.0,140.0,-94.0,-187.0,-140.0,-328.0,-47.0,187.0,47.0,47.0,47.0,-468.0,-94.0,-468.0,-94.0,94.0,-94.0,-94.0,-47.0,-421.0,-187.0,-936.0,0.0,-374.0,-328.0,-515.0,-1170.0,-515.0,-468.0,0.0,0.0,0.0,0.0,0.0,0.0,0.0,0.0,-281.0,-515.0,-94.0,0.0,187.0,-515.0,-421.0,-983.0,-94.0,0.0,187.0,-94.0,-140.0,-47.0,47.0,-328.0,328.0,-515.0,0.0,94.0,94.0,-234.0,-374.0,94.0,-795.0,234.0,-47.0,94.0,0.0,-47.0,140.0,-94.0,-795.0,140.0,-468.0,234.0,0.0,140.0,-281.0,-187.0,-47.0,94.0,-47.0,234.0,0.0,47.0,-328.0,47.0,-2340.0,-328.0,0.0,-94.0,0.0,187.0,-281.0,-2012.0,234.0,-515.0,-889.0,-749.0,-374.0,-140.0,-374.0,-187.0,-281.0,-1591.0,-187.0,-140.0,140.0,0.0,-1029.0,-47.0,-468.0,-94.0,-47.0,140.0,-94.0,140.0,-94.0,-328.0,94.0,-187.0,-94.0,0.0,47.0,-187.0,0.0,94.0,-281.0,47.0,-140.0,47.0,-187.0,0.0,0.0,187.0,0.0,-94.0,-187.0,-281.0,0.0,-328.0,-281.0,-187.0,-94.0,-608.0,-47.0,-187.0,-561.0,-328.0,-374.0,0.0,-374.0,0.0,-94.0,-281.0,-47.0,-140.0,-421.0,281.0,-47.0,140.0,47.0,-187.0,-608.0,0.0,-468.0,-187.0,749.0,655.0,608.0,374.0,468.0,374.0,795.0,561.0,795.0,515.0,655.0,468.0,374.0,515.0,795.0,702.0,749.0,795.0,702.0,702.0,655.0,655.0,1029.0,749.0,842.0,468.0,702.0,608.0,561.0,749.0,608.0,608.0,749.0,608.0,702.0,328.0,515.0,515.0,702.0,655.0,655.0,374.0,561.0,328.0,421.0,655.0,374.0,515.0,749.0,561.0,655.0,421.0,421.0,421.0,561.0,655.0,608.0,608.0,468.0,468.0,561.0,655.0,468.0,561.0,-1029.0,421.0,140.0,-94.0,187.0,-328.0,421.0,421.0,-468.0,655.0,421.0,561.0,421.0,421.0,608.0,328.0,608.0,655.0,561.0,561.0,515.0,702.0,561.0,889.0,655.0,702.0,561.0,702.0,561.0,608.0,328.0,702.0,608.0,608.0,842.0,608.0,608.0,608.0,702.0,561.0,421.0,655.0,515.0,328.0,374.0,561.0,94.0,702.0,608.0,655.0,515.0,468.0,374.0,-795.0,234.0,421.0,140.0,515.0,655.0,-281.0,374.0,-47.0,0.0,-94.0,421.0,-140.0,234.0,94.0,281.0,234.0,234.0,281.0,328.0,187.0,94.0,234.0,187.0,281.0,234.0,328.0,281.0,187.0,140.0,187.0,374.0,281.0,328.0,374.0,140.0,94.0,94.0,187.0,187.0,328.0,94.0,281.0,-140.0,-374.0,-94.0,-47.0,0.0,94.0,47.0,-140.0,-374.0,-795.0,-561.0,-140.0,-140.0,-328.0,-421.0,-749.0,-1076.0,-842.0,-515.0,-749.0,-515.0,-515.0,-515.0,-842.0,-749.0,-983.0,-842.0,-749.0,-655.0,-468.0,-842.0,-749.0,0.0,0.0,0.0,0.0,0.0,0.0,0.0,0.0,1404.0,-3275.0,1591.0,-2620.0,795.0,1029.0,-3369.0,749.0,749.0,-1497.0,983.0,-187.0,-2012.0,889.0,-1029.0,421.0,328.0,-655.0,281.0,-328.0,-281.0,468.0,-374.0,94.0,94.0,94.0,-187.0,-94.0,-187.0,187.0,-140.0,94.0,47.0,140.0,-140.0,0.0,-47.0,140.0,0.0,0.0,281.0,0.0,-47.0,234.0,-281.0,94.0,0.0,47.0,0.0,0.0,0.0,0.0,0.0,0.0,0.0,0.0,-561.0,281.0,140.0,-561.0,-421.0,-795.0,-842.0,0.0,234.0,421.0,-1170.0,-234.0,-1076.0,-561.0,-421.0,-328.0,655.0,-1451.0,-187.0,-749.0,-1263.0,-983.0,-795.0,-234.0,561.0,-702.0,140.0,-468.0,-608.0,-187.0,-1170.0,0.0,187.0,0.0,94.0,-328.0,-94.0,-187.0,-140.0,-47.0,47.0,281.0,-281.0,47.0,-140.0,47.0,47.0,0.0,140.0,328.0,-234.0,140.0,-140.0,0.0,234.0,94.0,187.0,-187.0,47.0,328.0,-47.0,234.0,0.0,0.0,0.0,-1872.0,-936.0,-1123.0,0.0,-187.0,-1638.0,-608.0,328.0,-2386.0,0.0,-1357.0,-889.0,-1170.0,-1263.0,-468.0,-842.0,-468.0,-1965.0,-561.0,-1310.0,-187.0,-1123.0,-187.0,234.0,-374.0,-1497.0,-1544.0,-515.0,-749.0,-47.0,-281.0,0.0,47.0,-702.0,-1263.0,-1872.0,-749.0,-234.0,281.0,187.0,-561.0,-94.0,-655.0,-1076.0,-140.0,47.0,0.0,234.0,-187.0,-281.0,-47.0,-234.0,-234.0,47.0,-234.0,94.0,-281.0,94.0,-140.0,-47.0,-328.0,-234.0,47.0,-515.0,-3743.0,-281.0,-2667.0,-1170.0,-328.0,-1310.0,-187.0,-140.0,-374.0,-187.0,-234.0,-328.0,-187.0,-328.0,-234.0,-140.0,-468.0,-187.0,-374.0,-234.0,-281.0,-328.0,-328.0,-140.0,-234.0,-468.0,-328.0,-468.0,-234.0,-468.0,-468.0,-328.0,-281.0,-374.0,-374.0,-374.0,-281.0,-561.0,-374.0,-140.0,-328.0,-374.0,-374.0,-374.0,-281.0,-515.0,-281.0,-234.0,-328.0,-468.0,-421.0,-421.0,-234.0,-421.0,-281.0,-328.0,-421.0,-561.0,-374.0,-421.0,-468.0,-421.0,-328.0,-749.0,-1217.0,-561.0,-702.0,-842.0,-749.0,-1170.0,-889.0,-328.0,-655.0,-561.0,-795.0,-561.0,-842.0,-795.0,-515.0,-281.0,-515.0,-655.0,-983.0,-1170.0,-515.0,-1123.0,-936.0,-374.0,-374.0,-468.0,-702.0,-468.0,-889.0,-468.0,-515.0,-608.0,-328.0,-561.0,-515.0,-655.0,-421.0,-515.0,-655.0,-187.0,-515.0,-515.0,-421.0,-608.0,-421.0,-374.0,-374.0,-515.0,-281.0,-468.0,-515.0,-515.0,-421.0,-328.0,-234.0,-421.0,-608.0,-421.0,-608.0,-515.0,-281.0,-561.0,-702.0,-2340.0,-1872.0,-1591.0,-842.0,-561.0,-374.0,-983.0,1217.0,-1404.0,-1591.0,374.0,468.0,561.0,749.0,-421.0,1076.0,-655.0,-1263.0,328.0,515.0,655.0,936.0,374.0,936.0,-983.0,187.0,515.0,655.0,749.0,889.0,795.0,561.0,655.0,561.0,655.0,702.0,655.0,749.0,749.0,749.0,561.0,842.0,655.0,842.0,795.0,749.0,795.0,749.0,374.0,702.0,795.0,936.0,795.0,795.0,702.0,702.0,936.0,702.0,655.0,842.0,795.0,889.0,702.0,749.0,0.0,0.0,0.0,0.0,0.0,0.0,0.0,0.0,-561.0,-421.0,515.0,-187.0,-47.0,-140.0,-47.0,-795.0,-655.0,-187.0,328.0,-234.0,-140.0,-94.0,-421.0,-47.0,-47.0,-795.0,1029.0,-421.0,-94.0,-608.0,-795.0,-374.0,140.0,234.0,-374.0,-94.0,-561.0,-655.0,-1029.0,-608.0,-328.0,749.0,94.0,468.0,-468.0,749.0,-702.0,328.0,-749.0,-234.0,-328.0,328.0,-936.0,374.0,-1217.0,-234.0,0.0,0.0,0.0,0.0,0.0,0.0,0.0,0.0,749.0,-374.0,-94.0,140.0,47.0,47.0,-374.0,421.0,-140.0,795.0,281.0,0.0,-234.0,-140.0,421.0,-94.0,-281.0,140.0,-47.0,-515.0,187.0,-281.0,94.0,-94.0,374.0,140.0,561.0,-47.0,-281.0,-281.0,421.0,-140.0,702.0,234.0,561.0,-47.0,187.0,-47.0,-702.0,515.0,1217.0,561.0,234.0,94.0,-187.0,187.0,-328.0,561.0,-234.0,655.0,515.0,281.0,-234.0,561.0,-234.0,936.0,468.0,1731.0,1544.0,561.0,187.0,983.0,749.0,374.0,47.0,47.0,94.0,515.0,-94.0,234.0,0.0,47.0,1217.0,140.0,281.0,-47.0,94.0,140.0,140.0,468.0,-47.0,842.0,187.0,140.0,94.0,281.0,94.0,94.0,702.0,187.0,328.0,421.0,-140.0,187.0,-47.0,234.0,421.0,702.0,234.0,-281.0,655.0,-281.0,-140.0,-94.0,842.0,561.0,187.0,140.0,-47.0,-47.0,-187.0,-328.0,1029.0,47.0,655.0,140.0,-234.0,795.0,515.0,-140.0,-140.0,0.0,889.0,655.0,842.0,561.0,1123.0,1123.0,-234.0,-47.0,-94.0,-187.0,-140.0,-374.0,-468.0,-1217.0,-374.0,-374.0,-94.0,-515.0,-281.0,-328.0,-749.0,-608.0,-515.0,0.0,421.0,0.0,-281.0,234.0,-234.0,-421.0,94.0,561.0,608.0,515.0,-187.0,-187.0,-608.0,0.0,-374.0,515.0,0.0,421.0,234.0,-328.0,-1029.0,281.0,-328.0,-281.0,-187.0,-608.0,94.0,-140.0,-1076.0,-515.0,-561.0,-608.0,-515.0,140.0,-281.0,140.0,-234.0,-94.0,-47.0,-374.0,749.0,140.0,374.0,140.0,281.0,655.0,561.0,468.0,655.0,468.0,468.0,-47.0,374.0,421.0,749.0,655.0,468.0,421.0,421.0,-47.0,140.0,-561.0,608.0,515.0,702.0,515.0,468.0,749.0,187.0,-94.0,702.0,749.0,795.0,608.0,421.0,374.0,655.0,140.0,421.0,889.0,-94.0,561.0,608.0,-47.0,-655.0,140.0,655.0,655.0,608.0,187.0,655.0,140.0,47.0,-234.0,-94.0,374.0,47.0,561.0,374.0,140.0,-702.0,234.0,281.0,608.0,749.0,749.0,842.0,1076.0,187.0,795.0,-795.0,-889.0,-1123.0,-421.0,-187.0,-281.0,94.0,140.0,-983.0,-1076.0,-889.0,-515.0,-281.0,94.0,140.0,281.0,-936.0,-608.0,468.0,94.0,281.0,-187.0,889.0,655.0,421.0,515.0,1029.0,1029.0,655.0,842.0,374.0,1310.0,702.0,47.0,-281.0,-936.0,795.0,-421.0,795.0,1076.0,-1123.0,-1170.0,-1544.0,-1872.0,-1357.0,-1357.0,-749.0,47.0,-1217.0,-374.0,-1684.0,-1918.0,-2246.0,-374.0,-140.0,702.0,234.0,-421.0,-1123.0,-1778.0,-1217.0,-1497.0,-328.0,936.0,0.0,0.0,0.0,0.0,0.0,0.0,0.0,0.0,515.0,842.0,1451.0,936.0,1591.0,1451.0,1591.0,328.0,655.0,1357.0,1076.0,94.0,1357.0,421.0,374.0,281.0,1029.0,842.0,936.0,328.0,374.0,842.0,140.0,-2152.0,842.0,421.0,983.0,-515.0,140.0,281.0,234.0,561.0,94.0,561.0,140.0,374.0,47.0,-374.0,187.0,187.0,655.0,281.0,702.0,-94.0,-421.0,-421.0,-328.0,374.0,0.0,0.0,0.0,0.0,0.0,0.0,0.0,0.0,-47.0,-328.0,1591.0,1825.0,1638.0,1778.0,468.0,-702.0,1404.0,1217.0,-94.0,1404.0,1544.0,1217.0,1544.0,1076.0,-94.0,1451.0,983.0,561.0,936.0,936.0,749.0,1357.0,421.0,655.0,0.0,561.0,234.0,234.0,608.0,983.0,842.0,561.0,889.0,-187.0,468.0,655.0,561.0,421.0,702.0,94.0,281.0,468.0,795.0,328.0,842.0,983.0,561.0,468.0,47.0,468.0,187.0,842.0,561.0,515.0,-281.0,140.0,328.0,936.0,421.0,795.0,795.0,1825.0,140.0,1217.0,655.0,1404.0,1263.0,1263.0,1357.0,281.0,-1217.0,842.0,1170.0,795.0,1170.0,1591.0,1544.0,1357.0,281.0,281.0,561.0,1076.0,655.0,983.0,1310.0,1404.0,187.0,234.0,1544.0,842.0,795.0,702.0,889.0,1076.0,749.0,328.0,795.0,515.0,328.0,468.0,608.0,749.0,749.0,-47.0,702.0,655.0,702.0,328.0,374.0,328.0,-749.0,842.0,47.0,702.0,421.0,608.0,140.0,374.0,889.0,561.0,1123.0,187.0,561.0,0.0,281.0,-1123.0,1357.0,1123.0,1591.0,1591.0,1217.0,1684.0,1684.0,1872.0,1029.0,795.0,1638.0,1591.0,1310.0,1076.0,1123.0,515.0,1076.0,749.0,1591.0,1310.0,1123.0,936.0,1076.0,889.0,281.0,515.0,1638.0,1451.0,1123.0,1263.0,1170.0,0.0,-281.0,140.0,936.0,94.0,1076.0,1170.0,889.0,1357.0,795.0,281.0,702.0,1123.0,1263.0,1076.0,1170.0,608.0,795.0,561.0,889.0,889.0,983.0,1029.0,1076.0,702.0,561.0,468.0,515.0,561.0,749.0,1310.0,1029.0,889.0,842.0,1497.0,374.0,94.0,702.0,515.0,655.0,374.0,-1404.0,94.0,-47.0,1123.0,1357.0,1217.0,1263.0,1684.0,515.0,1263.0,1404.0,1404.0,1778.0,-94.0,1404.0,1404.0,749.0,328.0,1965.0,1404.0,936.0,1310.0,983.0,1591.0,-47.0,1217.0,1217.0,1263.0,1591.0,795.0,1544.0,1451.0,561.0,795.0,889.0,1357.0,1170.0,1310.0,1263.0,1591.0,515.0,1123.0,1170.0,1217.0,1544.0,1170.0,1263.0,1217.0,1029.0,983.0,1217.0,1451.0,1451.0,1263.0,936.0,281.0,1310.0,889.0,1263.0,1404.0,1404.0,2199.0,983.0,889.0,1731.0,1638.0,1825.0,2293.0,2152.0,2714.0,2714.0,2527.0,1731.0,2106.0,1825.0,2199.0,2293.0,2340.0,2059.0,1825.0,1965.0,2012.0,2433.0,2012.0,1684.0,1731.0,1170.0,889.0,2106.0,1825.0,1310.0,1451.0,889.0,1076.0,702.0,1029.0,1404.0,608.0,-421.0,561.0,889.0,842.0,187.0,749.0,468.0,749.0,421.0,421.0,655.0,561.0,234.0,0.0,-234.0,281.0,655.0,561.0,655.0,889.0,47.0,234.0,0.0,0.0,0.0,0.0,0.0,0.0,0.0,0.0,47.0,94.0,140.0,0.0,-47.0,-374.0,-328.0,-281.0,-47.0,-47.0,328.0,-47.0,-94.0,-140.0,-936.0,-94.0,-234.0,94.0,94.0,140.0,234.0,0.0,-842.0,0.0,-140.0,187.0,328.0,281.0,374.0,-94.0,-1029.0,281.0,0.0,47.0,421.0,47.0,515.0,-749.0,-1544.0,140.0,-749.0,47.0,-47.0,-328.0,-889.0,-2573.0,-1357.0,655.0,0.0,0.0,0.0,0.0,0.0,0.0,0.0,0.0,1029.0,561.0,468.0,94.0,468.0,187.0,94.0,702.0,749.0,281.0,328.0,515.0,-140.0,47.0,468.0,421.0,281.0,234.0,374.0,0.0,0.0,187.0,187.0,-328.0,468.0,374.0,515.0,0.0,468.0,-187.0,421.0,140.0,608.0,421.0,187.0,515.0,-281.0,94.0,-94.0,-94.0,281.0,936.0,374.0,140.0,-47.0,0.0,-374.0,0.0,889.0,655.0,468.0,468.0,421.0,-421.0,0.0,328.0,1029.0,655.0,608.0,-234.0,-655.0,-47.0,983.0,702.0,-140.0,561.0,-140.0,234.0,-234.0,0.0,-1123.0,-47.0,515.0,-468.0,187.0,-187.0,-94.0,-421.0,281.0,0.0,-328.0,47.0,-281.0,0.0,-374.0,47.0,-374.0,187.0,234.0,47.0,234.0,-702.0,140.0,-281.0,-47.0,-561.0,140.0,187.0,-468.0,281.0,-281.0,-374.0,-328.0,-94.0,234.0,140.0,655.0,-281.0,-421.0,-515.0,-234.0,94.0,421.0,328.0,94.0,-94.0,-561.0,-328.0,-608.0,-842.0,936.0,47.0,-749.0,-234.0,-561.0,-374.0,702.0,187.0,-47.0,47.0,47.0,140.0,0.0,-47.0,-281.0,-140.0,0.0,-47.0,140.0,0.0,47.0,-140.0,-47.0,-94.0,-140.0,-281.0,140.0,0.0,94.0,234.0,-94.0,-94.0,281.0,94.0,187.0,47.0,468.0,515.0,47.0,328.0,328.0,187.0,234.0,94.0,47.0,187.0,-140.0,374.0,328.0,94.0,234.0,281.0,468.0,-187.0,0.0,234.0,140.0,47.0,187.0,140.0,328.0,47.0,47.0,-94.0,374.0,468.0,-1778.0,47.0,-328.0,-328.0,-47.0,1217.0,234.0,281.0,234.0,374.0,47.0,187.0,421.0,515.0,328.0,515.0,374.0,328.0,234.0,187.0,281.0,421.0,234.0,328.0,-187.0,328.0,234.0,515.0,655.0,234.0,374.0,187.0,234.0,94.0,468.0,281.0,842.0,234.0,187.0,374.0,468.0,281.0,328.0,655.0,421.0,561.0,328.0,468.0,421.0,374.0,749.0,421.0,749.0,795.0,561.0,468.0,374.0,328.0,468.0,702.0,795.0,561.0,-140.0,-421.0,94.0,-374.0,94.0,281.0,561.0,702.0,-1076.0,-983.0,-889.0,-515.0,-281.0,281.0,328.0,187.0,-1965.0,-1357.0,-983.0,-515.0,47.0,374.0,608.0,374.0,-1217.0,-1684.0,-608.0,-374.0,140.0,749.0,936.0,702.0,-421.0,-655.0,-795.0,-140.0,281.0,515.0,842.0,561.0,-889.0,-889.0,-1217.0,94.0,608.0,795.0,749.0,936.0,140.0,-1497.0,-1825.0,-2527.0,1310.0,515.0,749.0,515.0,-1451.0,-655.0,-1591.0,-1778.0,1170.0,983.0,936.0,-1684.0,-421.0,-889.0,94.0,-655.0,-2199.0,515.0,-374.0,1029.0,0.0,0.0,0.0,0.0,0.0,0.0,0.0,0.0,374.0,234.0,140.0,-140.0,187.0,234.0,-47.0,47.0,234.0,234.0,281.0,0.0,94.0,468.0,-795.0,328.0,0.0,140.0,-374.0,94.0,-234.0,187.0,-468.0,-234.0,47.0,0.0,-47.0,47.0,-234.0,-468.0,-515.0,234.0,47.0,-94.0,-47.0,0.0,-94.0,-608.0,-1544.0,47.0,47.0,-140.0,47.0,-140.0,-47.0,-561.0,-1591.0,561.0,0.0,0.0,0.0,0.0,0.0,0.0,0.0,0.0,-421.0,-842.0,-749.0,842.0,-561.0,1170.0,94.0,47.0,-94.0,0.0,140.0,328.0,94.0,608.0,749.0,1029.0,-374.0,47.0,374.0,140.0,608.0,140.0,842.0,842.0,-234.0,-281.0,-281.0,374.0,281.0,608.0,374.0,187.0,-94.0,47.0,234.0,47.0,234.0,328.0,561.0,561.0,-374.0,-94.0,-47.0,374.0,234.0,374.0,-47.0,281.0,-702.0,47.0,-187.0,47.0,234.0,47.0,47.0,842.0,-468.0,0.0,47.0,-421.0,47.0,-47.0,515.0,140.0,655.0,702.0,655.0,281.0,983.0,702.0,561.0,187.0,140.0,281.0,187.0,187.0,515.0,608.0,936.0,515.0,47.0,281.0,328.0,421.0,421.0,655.0,328.0,702.0,281.0,140.0,234.0,374.0,608.0,515.0,608.0,608.0,281.0,374.0,187.0,561.0,421.0,468.0,-47.0,421.0,187.0,234.0,140.0,140.0,468.0,187.0,187.0,234.0,94.0,421.0,328.0,234.0,234.0,281.0,-47.0,1310.0,47.0,421.0,374.0,281.0,421.0,-234.0,1310.0,468.0,140.0,328.0,561.0,47.0,561.0,795.0,889.0,749.0,561.0,421.0,515.0,749.0,795.0,936.0,795.0,983.0,749.0,421.0,515.0,749.0,795.0,1076.0,1029.0,889.0,140.0,468.0,515.0,561.0,655.0,1123.0,795.0,1029.0,421.0,281.0,374.0,234.0,842.0,889.0,1029.0,842.0,374.0,234.0,421.0,561.0,749.0,936.0,842.0,749.0,889.0,749.0,608.0,374.0,795.0,936.0,1076.0,1029.0,795.0,889.0,608.0,795.0,749.0,1123.0,1451.0,515.0,1170.0,1357.0,1217.0,1029.0,1497.0,1217.0,1310.0,1263.0,1076.0,1263.0,1170.0,1310.0,983.0,983.0,1497.0,1544.0,1076.0,1170.0,1029.0,983.0,1263.0,1263.0,608.0,1497.0,936.0,983.0,1170.0,1029.0,1123.0,1123.0,795.0,1310.0,983.0,1029.0,1029.0,983.0,889.0,936.0,1029.0,1357.0,1217.0,936.0,1076.0,936.0,1263.0,1170.0,1170.0,1404.0,1029.0,1170.0,1170.0,1029.0,1217.0,1029.0,1451.0,1497.0,1404.0,1263.0,983.0,1076.0,1263.0,1451.0,1778.0,1263.0,749.0,749.0,468.0,561.0,515.0,889.0,281.0,1029.0,842.0,608.0,749.0,374.0,234.0,421.0,795.0,842.0,936.0,795.0,187.0,655.0,468.0,515.0,374.0,468.0,-421.0,702.0,795.0,702.0,374.0,702.0,47.0,-655.0,795.0,421.0,749.0,-374.0,608.0,-749.0,-374.0,-47.0,842.0,608.0,936.0,187.0,-983.0,234.0,-515.0,-140.0,749.0,936.0,515.0,281.0,0.0,-94.0,-468.0,421.0,983.0,515.0,281.0,-94.0,140.0,-468.0,140.0,936.0,0.0,0.0,0.0,0.0,0.0,0.0,0.0,0.0,-140.0,-47.0,-187.0,702.0,515.0,-374.0,0.0,-561.0,-187.0,94.0,515.0,140.0,47.0,-515.0,94.0,-655.0,234.0,234.0,374.0,-94.0,-140.0,-1638.0,-1170.0,-3463.0,0.0,328.0,47.0,-328.0,374.0,94.0,-561.0,1217.0,47.0,-281.0,608.0,-795.0,1263.0,-1731.0,1076.0,-47.0,47.0,-1170.0,-328.0,-47.0,234.0,-94.0,-749.0,234.0,0.0,0.0,0.0,0.0,0.0,0.0,0.0,0.0,561.0,468.0,889.0,655.0,94.0,-47.0,1591.0,1310.0,1404.0,1029.0,468.0,140.0,234.0,140.0,-702.0,47.0,608.0,187.0,-140.0,-47.0,140.0,515.0,795.0,-47.0,0.0,561.0,655.0,561.0,281.0,-1544.0,-1263.0,-374.0,936.0,468.0,0.0,47.0,515.0,-328.0,234.0,-234.0,702.0,374.0,936.0,0.0,-140.0,-94.0,-328.0,374.0,983.0,842.0,608.0,1451.0,608.0,281.0,328.0,1170.0,-702.0,1076.0,842.0,1310.0,0.0,1497.0,702.0,-140.0,-187.0,94.0,-94.0,889.0,281.0,468.0,1076.0,655.0,515.0,-47.0,140.0,-281.0,936.0,515.0,281.0,47.0,187.0,936.0,234.0,983.0,-328.0,468.0,0.0,702.0,561.0,328.0,749.0,468.0,468.0,-889.0,0.0,-1544.0,936.0,1076.0,936.0,421.0,-94.0,140.0,-328.0,1357.0,702.0,94.0,608.0,-421.0,47.0,-468.0,-281.0,-889.0,421.0,468.0,795.0,889.0,515.0,374.0,94.0,468.0,515.0,936.0,608.0,702.0,1029.0,655.0,702.0,842.0,-94.0,94.0,187.0,-47.0,140.0,-140.0,-187.0,-328.0,-374.0,328.0,281.0,234.0,374.0,-47.0,-374.0,-1076.0,655.0,1123.0,749.0,749.0,561.0,421.0,234.0,-281.0,608.0,889.0,328.0,281.0,-234.0,-795.0,-1263.0,-374.0,-187.0,234.0,421.0,-47.0,-608.0,-1076.0,-140.0,-140.0,281.0,94.0,94.0,94.0,-983.0,-561.0,-936.0,-608.0,-281.0,187.0,281.0,187.0,655.0,515.0,-187.0,-561.0,94.0,-608.0,-515.0,-421.0,-281.0,-187.0,-421.0,-328.0,-234.0,281.0,655.0,187.0,749.0,328.0,842.0,515.0,234.0,328.0,421.0,468.0,374.0,702.0,515.0,702.0,561.0,515.0,795.0,842.0,328.0,561.0,561.0,1076.0,374.0,936.0,468.0,328.0,515.0,94.0,-328.0,702.0,1123.0,608.0,749.0,515.0,-140.0,515.0,-561.0,281.0,936.0,983.0,468.0,515.0,608.0,421.0,-421.0,-281.0,795.0,795.0,842.0,328.0,-140.0,47.0,-328.0,515.0,702.0,561.0,234.0,-234.0,234.0,421.0,-47.0,421.0,-1404.0,-1591.0,-187.0,-94.0,281.0,608.0,421.0,-94.0,-608.0,-795.0,-936.0,187.0,842.0,1029.0,936.0,515.0,-374.0,94.0,561.0,795.0,655.0,1544.0,936.0,0.0,281.0,1263.0,795.0,1310.0,842.0,-47.0,983.0,374.0,468.0,-655.0,842.0,-561.0,-468.0,-1123.0,0.0,187.0,234.0,-468.0,-795.0,-1684.0,-1029.0,-1029.0,-561.0,47.0,-655.0,-374.0,-140.0,234.0,-795.0,-749.0,-561.0,-749.0,140.0,561.0,749.0,-421.0,-1310.0,-1684.0,-281.0,-983.0,0.0,0.0,0.0,0.0,0.0,0.0,0.0,0.0,1029.0,1778.0,1170.0,1263.0,1310.0,374.0,749.0,1029.0,-234.0,-421.0,702.0,842.0,749.0,1357.0,-608.0,-1029.0,374.0,749.0,561.0,47.0,140.0,-234.0,1684.0,1825.0,328.0,328.0,374.0,0.0,-187.0,187.0,-1404.0,328.0,94.0,47.0,0.0,561.0,328.0,-842.0,-515.0,-1029.0,234.0,-47.0,-47.0,468.0,140.0,-374.0,-983.0,-468.0,0.0,0.0,0.0,0.0,0.0,0.0,0.0,0.0,-187.0,140.0,1684.0,-515.0,1731.0,421.0,2386.0,47.0,1684.0,374.0,1591.0,1076.0,2012.0,1076.0,468.0,1076.0,281.0,702.0,1123.0,1217.0,1123.0,1310.0,842.0,1872.0,468.0,1123.0,281.0,749.0,1170.0,1217.0,0.0,1029.0,561.0,421.0,468.0,328.0,47.0,47.0,889.0,1310.0,0.0,94.0,515.0,655.0,655.0,561.0,-187.0,-94.0,-421.0,374.0,140.0,-47.0,140.0,842.0,1404.0,1123.0,-187.0,-421.0,795.0,-187.0,1076.0,374.0,515.0,234.0,515.0,1310.0,2386.0,1591.0,1217.0,1544.0,2573.0,936.0,515.0,1310.0,1591.0,1123.0,1684.0,1872.0,1684.0,1965.0,842.0,468.0,936.0,1591.0,1918.0,1217.0,1263.0,515.0,795.0,1076.0,1170.0,1357.0,983.0,983.0,468.0,1684.0,1170.0,374.0,1497.0,842.0,1123.0,702.0,1076.0,421.0,328.0,1217.0,281.0,1170.0,281.0,702.0,-140.0,842.0,1638.0,468.0,1029.0,94.0,1076.0,515.0,468.0,234.0,561.0,936.0,140.0,1076.0,-94.0,889.0,-281.0,468.0,1497.0,1217.0,1451.0,1310.0,1684.0,1778.0,1544.0,1357.0,1263.0,1357.0,1591.0,608.0,1872.0,1263.0,1310.0,561.0,1217.0,1123.0,1497.0,1638.0,1965.0,1591.0,983.0,1451.0,1357.0,795.0,-187.0,936.0,1029.0,1217.0,1497.0,1263.0,842.0,1170.0,1170.0,702.0,1404.0,1310.0,1123.0,983.0,936.0,1170.0,983.0,795.0,608.0,1123.0,1217.0,983.0,702.0,1029.0,936.0,702.0,983.0,1217.0,1076.0,1310.0,842.0,842.0,749.0,936.0,749.0,1170.0,1123.0,1076.0,1591.0,2012.0,1965.0,936.0,187.0,1638.0,1404.0,2340.0,1263.0,1217.0,1638.0,1029.0,1310.0,1918.0,1778.0,1731.0,608.0,1357.0,1918.0,2012.0,2059.0,2386.0,1918.0,1778.0,468.0,842.0,1731.0,1731.0,1778.0,1451.0,1965.0,2152.0,983.0,515.0,1076.0,1638.0,1825.0,2106.0,1778.0,2246.0,561.0,1217.0,1170.0,1404.0,2246.0,1731.0,2480.0,1825.0,795.0,1310.0,1217.0,1357.0,1591.0,2152.0,1591.0,2246.0,1497.0,983.0,1404.0,1357.0,1591.0,1778.0,1544.0,1825.0,1217.0,1029.0,1497.0,1123.0,1029.0,1123.0,1170.0,608.0,702.0,1451.0,1778.0,1404.0,1638.0,2293.0,1263.0,1404.0,1965.0,1544.0,1731.0,1918.0,1965.0,2667.0,2012.0,1591.0,1029.0,1544.0,1263.0,1778.0,1638.0,1872.0,1497.0,1638.0,1638.0,1029.0,561.0,1170.0,1497.0,1029.0,655.0,1497.0,468.0,561.0,889.0,1263.0,842.0,1029.0,1263.0,1123.0,47.0,94.0,0.0,936.0,842.0,983.0,749.0,421.0,1123.0,889.0,468.0,234.0,281.0,936.0,468.0,187.0,0.0,0.0,0.0,0.0,0.0,0.0,0.0,0.0,94.0,-140.0,-140.0,-140.0,-140.0,-187.0,-328.0,-187.0,0.0,-94.0,-140.0,-187.0,-140.0,-234.0,-281.0,-140.0,0.0,0.0,-281.0,-187.0,-421.0,-281.0,-374.0,-234.0,94.0,-187.0,47.0,-234.0,94.0,-795.0,-94.0,-234.0,187.0,-140.0,-140.0,47.0,-187.0,-94.0,-374.0,47.0,47.0,-608.0,-140.0,-94.0,94.0,94.0,-94.0,468.0,0.0,0.0,0.0,0.0,0.0,0.0,0.0,0.0,-187.0,-94.0,0.0,94.0,47.0,-47.0,-94.0,-187.0,-328.0,0.0,-140.0,0.0,-187.0,47.0,0.0,0.0,-47.0,0.0,-140.0,0.0,47.0,-47.0,-94.0,-94.0,0.0,47.0,94.0,-47.0,-47.0,0.0,140.0,-47.0,234.0,-234.0,47.0,-94.0,94.0,-94.0,140.0,94.0,234.0,187.0,140.0,0.0,94.0,281.0,-187.0,-749.0,-94.0,234.0,47.0,281.0,0.0,328.0,-374.0,515.0,0.0,328.0,234.0,234.0,140.0,-187.0,187.0,-234.0,-47.0,-795.0,94.0,-842.0,187.0,-842.0,187.0,-374.0,-515.0,94.0,-889.0,281.0,-795.0,187.0,-655.0,374.0,281.0,-1123.0,234.0,-1029.0,328.0,-983.0,234.0,-842.0,-1170.0,374.0,-795.0,374.0,-889.0,421.0,-889.0,374.0,421.0,-608.0,374.0,-983.0,281.0,-1217.0,374.0,-936.0,-608.0,421.0,-983.0,374.0,-1123.0,421.0,-936.0,421.0,561.0,-1310.0,374.0,-1123.0,421.0,-1357.0,328.0,-1217.0,-936.0,281.0,-1029.0,234.0,-1076.0,328.0,-2152.0,561.0,-281.0,-281.0,-234.0,-281.0,-281.0,-234.0,-281.0,-281.0,-281.0,-281.0,-234.0,-234.0,-187.0,-187.0,-187.0,-94.0,-234.0,-94.0,-94.0,-187.0,-140.0,-187.0,0.0,-47.0,-140.0,-281.0,-281.0,-281.0,-281.0,-94.0,-234.0,-94.0,-281.0,-140.0,-281.0,-140.0,-140.0,-94.0,47.0,0.0,-94.0,-374.0,-234.0,-187.0,-187.0,-328.0,-281.0,-94.0,-281.0,-374.0,-421.0,-187.0,-421.0,-328.0,-468.0,-328.0,-281.0,-281.0,-234.0,-328.0,-47.0,-281.0,-187.0,-140.0,-842.0,-1170.0,-936.0,-1029.0,-842.0,-1123.0,-655.0,-1451.0,-1076.0,-936.0,-1123.0,-936.0,-1029.0,-889.0,-936.0,-1029.0,-842.0,-1029.0,-842.0,-1123.0,-749.0,-889.0,-608.0,-889.0,-1123.0,-795.0,-1123.0,-749.0,-889.0,-608.0,-889.0,-655.0,-749.0,-983.0,-749.0,-1076.0,-608.0,-983.0,-561.0,-842.0,-983.0,-749.0,-1123.0,-561.0,-889.0,-608.0,-889.0,-515.0,-655.0,-1029.0,-749.0,-1217.0,-702.0,-889.0,-983.0,-936.0,-1076.0,-702.0,-1076.0,-936.0,-1029.0,-983.0,-842.0,-936.0,468.0,421.0,94.0,140.0,0.0,140.0,140.0,140.0,187.0,-47.0,94.0,94.0,94.0,94.0,140.0,140.0,47.0,94.0,187.0,47.0,140.0,47.0,140.0,187.0,-234.0,140.0,-140.0,94.0,-187.0,94.0,-94.0,234.0,94.0,-374.0,47.0,-281.0,-94.0,-328.0,0.0,140.0,-94.0,0.0,-655.0,0.0,-2012.0,-702.0,-187.0,140.0,187.0,-234.0,-94.0,-2246.0,-1965.0,-1825.0,0.0,281.0,187.0,140.0,94.0,187.0,-1684.0,-1638.0,-1123.0,795.0,0.0,0.0,0.0,0.0,0.0,0.0,0.0,0.0,374.0,140.0,234.0,140.0,281.0,-47.0,-234.0,-140.0,94.0,328.0,281.0,47.0,328.0,328.0,234.0,187.0,140.0,328.0,0.0,234.0,0.0,515.0,234.0,328.0,140.0,94.0,234.0,47.0,328.0,187.0,328.0,281.0,47.0,281.0,-94.0,328.0,-140.0,374.0,140.0,421.0,187.0,47.0,234.0,-140.0,234.0,-47.0,328.0,281.0,0.0,0.0,0.0,0.0,0.0,0.0,0.0,0.0,-140.0,374.0,655.0,94.0,-94.0,328.0,702.0,468.0,94.0,94.0,328.0,94.0,47.0,140.0,140.0,328.0,234.0,234.0,234.0,234.0,234.0,374.0,94.0,421.0,187.0,140.0,374.0,140.0,94.0,281.0,47.0,328.0,140.0,374.0,94.0,328.0,0.0,234.0,94.0,234.0,374.0,187.0,140.0,-94.0,374.0,94.0,421.0,328.0,421.0,328.0,328.0,0.0,187.0,187.0,561.0,281.0,561.0,234.0,187.0,421.0,281.0,421.0,47.0,1310.0,328.0,281.0,0.0,-94.0,234.0,187.0,140.0,0.0,187.0,94.0,-140.0,187.0,47.0,47.0,94.0,374.0,281.0,0.0,281.0,0.0,234.0,47.0,468.0,140.0,94.0,140.0,0.0,94.0,47.0,281.0,94.0,187.0,-47.0,94.0,187.0,94.0,140.0,94.0,281.0,328.0,140.0,47.0,94.0,234.0,140.0,234.0,281.0,281.0,-187.0,94.0,140.0,187.0,140.0,281.0,234.0,608.0,374.0,187.0,374.0,281.0,374.0,281.0,328.0,328.0,421.0,421.0,374.0,468.0,468.0,515.0,374.0,608.0,702.0,421.0,515.0,515.0,374.0,421.0,561.0,608.0,421.0,421.0,328.0,421.0,561.0,374.0,515.0,608.0,561.0,421.0,655.0,561.0,561.0,421.0,608.0,515.0,608.0,421.0,515.0,561.0,561.0,608.0,608.0,561.0,468.0,468.0,515.0,561.0,608.0,515.0,608.0,655.0,561.0,561.0,561.0,608.0,608.0,702.0,795.0,795.0,468.0,421.0,468.0,515.0,608.0,561.0,655.0,561.0,608.0,795.0,655.0,608.0,561.0,655.0,749.0,749.0,936.0,702.0,702.0,702.0,515.0,328.0,795.0,-608.0,608.0,889.0,749.0,889.0,281.0,655.0,515.0,702.0,1029.0,702.0,936.0,655.0,795.0,561.0,936.0,515.0,515.0,936.0,655.0,936.0,702.0,889.0,561.0,842.0,889.0,795.0,889.0,795.0,936.0,795.0,842.0,702.0,655.0,889.0,655.0,936.0,749.0,936.0,936.0,1029.0,889.0,749.0,936.0,655.0,983.0,702.0,1123.0,702.0,-94.0,-94.0,94.0,47.0,-187.0,234.0,-140.0,-47.0,-281.0,187.0,374.0,187.0,234.0,47.0,281.0,140.0,140.0,234.0,94.0,328.0,140.0,234.0,234.0,234.0,140.0,94.0,328.0,0.0,187.0,-94.0,234.0,140.0,-47.0,281.0,140.0,234.0,0.0,187.0,94.0,328.0,468.0,0.0,234.0,47.0,328.0,94.0,328.0,234.0,-94.0,328.0,-47.0,281.0,187.0,328.0,94.0,374.0,140.0,94.0,328.0,234.0,234.0,140.0,281.0,234.0,0.0,0.0,0.0,0.0,0.0,0.0,0.0,0.0,-94.0,0.0,-47.0,-47.0,-140.0,0.0,-187.0,-94.0,0.0,0.0,94.0,-47.0,-94.0,47.0,-140.0,-94.0,-140.0,187.0,140.0,47.0,-187.0,-187.0,-328.0,-94.0,94.0,281.0,187.0,47.0,-281.0,-328.0,-94.0,655.0,234.0,374.0,281.0,936.0,-47.0,47.0,-328.0,515.0,-94.0,-281.0,421.0,561.0,561.0,-655.0,795.0,1310.0,0.0,0.0,0.0,0.0,0.0,0.0,0.0,0.0,-281.0,187.0,-468.0,515.0,234.0,-94.0,187.0,749.0,94.0,608.0,374.0,515.0,94.0,234.0,374.0,140.0,468.0,0.0,328.0,140.0,281.0,421.0,328.0,281.0,234.0,468.0,421.0,328.0,328.0,515.0,328.0,936.0,140.0,328.0,281.0,468.0,421.0,0.0,234.0,795.0,702.0,421.0,281.0,795.0,468.0,608.0,1684.0,655.0,608.0,281.0,561.0,421.0,421.0,702.0,655.0,-2807.0,468.0,-374.0,328.0,-234.0,515.0,468.0,-328.0,421.0,328.0,889.0,328.0,281.0,374.0,234.0,468.0,-47.0,374.0,515.0,749.0,468.0,328.0,328.0,468.0,328.0,281.0,655.0,515.0,374.0,187.0,328.0,421.0,655.0,655.0,281.0,421.0,328.0,702.0,140.0,281.0,468.0,374.0,328.0,655.0,608.0,421.0,608.0,328.0,421.0,749.0,515.0,468.0,842.0,795.0,-94.0,889.0,374.0,515.0,749.0,-47.0,608.0,702.0,374.0,1263.0,842.0,1076.0,889.0,515.0,374.0,795.0,1170.0,1263.0,608.0,140.0,234.0,374.0,374.0,515.0,234.0,608.0,187.0,-187.0,515.0,140.0,608.0,234.0,561.0,608.0,374.0,702.0,234.0,515.0,842.0,795.0,749.0,842.0,655.0,608.0,842.0,608.0,702.0,468.0,936.0,889.0,795.0,328.0,842.0,608.0,702.0,749.0,655.0,608.0,1170.0,281.0,561.0,795.0,936.0,608.0,608.0,421.0,842.0,702.0,702.0,468.0,655.0,655.0,374.0,608.0,655.0,561.0,655.0,1029.0,795.0,608.0,749.0,468.0,374.0,328.0,842.0,936.0,1029.0,1123.0,936.0,374.0,1170.0,889.0,1029.0,983.0,842.0,983.0,1076.0,842.0,47.0,1217.0,983.0,749.0,1076.0,1263.0,1076.0,1404.0,1029.0,1076.0,1497.0,1217.0,936.0,1076.0,1404.0,1029.0,1217.0,1076.0,1263.0,983.0,1404.0,1404.0,1310.0,1357.0,1029.0,1310.0,1263.0,936.0,1591.0,1451.0,1029.0,1170.0,749.0,1123.0,1123.0,1170.0,1404.0,1451.0,1170.0,-1684.0,1310.0,889.0,1263.0,1170.0,702.0,1263.0,1029.0,655.0,94.0,842.0,421.0,374.0,468.0,0.0,47.0,234.0,281.0,234.0,234.0,421.0,515.0,328.0,374.0,94.0,328.0,468.0,-47.0,-842.0,187.0,47.0,281.0,94.0,-47.0,842.0,187.0,-421.0,94.0,-374.0,-94.0,-281.0,-561.0,234.0,889.0,515.0,140.0,234.0,234.0,328.0,-94.0,842.0,561.0,655.0,187.0,281.0,983.0,187.0,187.0,842.0,374.0,421.0,187.0,842.0,421.0,608.0,374.0,234.0,795.0,-94.0,561.0,889.0,702.0,234.0,-140.0,0.0,0.0,0.0,0.0,0.0,0.0,0.0,0.0,468.0,468.0,328.0,374.0,374.0,-842.0,561.0,-468.0,47.0,234.0,-47.0,281.0,-374.0,94.0,-140.0,0.0,-47.0,47.0,94.0,-94.0,-608.0,-608.0,-140.0,-94.0,-47.0,-47.0,0.0,-234.0,-421.0,-702.0,-702.0,421.0,-47.0,-234.0,-234.0,281.0,-795.0,-749.0,140.0,608.0,47.0,-328.0,-94.0,-234.0,-421.0,-655.0,1217.0,561.0,0.0,0.0,0.0,0.0,0.0,0.0,0.0,0.0,842.0,515.0,94.0,-140.0,468.0,-47.0,608.0,-47.0,608.0,94.0,281.0,795.0,-234.0,281.0,983.0,374.0,702.0,0.0,374.0,-47.0,-140.0,-421.0,187.0,-374.0,140.0,-47.0,187.0,-187.0,140.0,-234.0,0.0,-94.0,-187.0,234.0,-281.0,-94.0,-187.0,140.0,-187.0,-561.0,234.0,-374.0,-234.0,140.0,-421.0,-234.0,-47.0,-187.0,94.0,374.0,0.0,-187.0,94.0,-702.0,1029.0,-328.0,1076.0,-47.0,94.0,-94.0,94.0,94.0,0.0,234.0,374.0,-187.0,187.0,608.0,281.0,515.0,468.0,842.0,608.0,702.0,94.0,328.0,281.0,-421.0,749.0,608.0,328.0,187.0,0.0,-187.0,328.0,-140.0,187.0,-468.0,140.0,187.0,281.0,187.0,94.0,94.0,-140.0,-281.0,328.0,140.0,187.0,0.0,-47.0,-187.0,-421.0,-140.0,281.0,140.0,-47.0,140.0,-187.0,-281.0,94.0,140.0,187.0,-234.0,281.0,-140.0,140.0,-234.0,983.0,-421.0,-94.0,655.0,-234.0,-187.0,-328.0,1310.0,702.0,889.0,-561.0,-936.0,-94.0,140.0,94.0,-749.0,0.0,-749.0,-234.0,-47.0,-140.0,-795.0,-515.0,-468.0,0.0,-94.0,-281.0,-187.0,47.0,374.0,-140.0,-328.0,-187.0,-234.0,-47.0,-47.0,374.0,94.0,-328.0,-468.0,-421.0,-234.0,0.0,-234.0,-140.0,-140.0,-187.0,-421.0,-749.0,-608.0,328.0,-47.0,-234.0,47.0,-374.0,-374.0,-795.0,-374.0,47.0,-47.0,0.0,-94.0,-187.0,-281.0,561.0,1638.0,-94.0,-187.0,-234.0,0.0,-328.0,94.0,1544.0,1029.0,1170.0,842.0,702.0,421.0,374.0,655.0,468.0,1310.0,608.0,795.0,655.0,374.0,702.0,421.0,608.0,983.0,749.0,702.0,702.0,281.0,561.0,702.0,468.0,842.0,702.0,515.0,889.0,608.0,702.0,515.0,421.0,608.0,561.0,889.0,608.0,561.0,561.0,515.0,515.0,795.0,702.0,515.0,561.0,655.0,468.0,468.0,515.0,281.0,328.0,468.0,140.0,328.0,655.0,421.0,655.0,1544.0,421.0,608.0,515.0,328.0,234.0,1029.0,1263.0,1217.0,-1217.0,-936.0,-1731.0,-749.0,-608.0,-749.0,-421.0,-561.0,-936.0,-1731.0,-2059.0,-1404.0,-1404.0,-2293.0,140.0,-936.0,-983.0,-1123.0,-1731.0,-983.0,-1404.0,-1778.0,-374.0,-1544.0,-47.0,-561.0,468.0,94.0,749.0,749.0,1170.0,1217.0,468.0,561.0,187.0,702.0,1310.0,1029.0,936.0,1544.0,234.0,187.0,421.0,749.0,889.0,1170.0,1217.0,795.0,-94.0,-47.0,94.0,561.0,983.0,468.0,1029.0,-374.0,-655.0,-842.0,-421.0,94.0,-187.0,655.0,-608.0,-1497.0,0.0,0.0,0.0,0.0,0.0,0.0,0.0,0.0,-374.0,-234.0,47.0,187.0,-94.0,-140.0,-421.0,-234.0,-234.0,374.0,-187.0,-187.0,-608.0,47.0,-281.0,-421.0,-1217.0,795.0,-187.0,-140.0,-234.0,-328.0,-94.0,-561.0,0.0,187.0,-468.0,-281.0,-702.0,608.0,-47.0,187.0,561.0,515.0,-1123.0,0.0,187.0,936.0,421.0,234.0,-842.0,47.0,-608.0,608.0,-515.0,187.0,1263.0,-1357.0,0.0,0.0,0.0,0.0,0.0,0.0,0.0,0.0,1731.0,0.0,608.0,94.0,-187.0,374.0,94.0,1123.0,936.0,0.0,468.0,328.0,281.0,47.0,374.0,-608.0,468.0,0.0,94.0,842.0,515.0,281.0,421.0,655.0,608.0,421.0,655.0,328.0,468.0,889.0,-983.0,795.0,-94.0,749.0,561.0,-140.0,140.0,515.0,983.0,281.0,936.0,515.0,-47.0,561.0,140.0,94.0,702.0,187.0,1029.0,468.0,795.0,234.0,515.0,421.0,1029.0,749.0,281.0,1123.0,936.0,983.0,515.0,1076.0,1684.0,-561.0,47.0,-749.0,281.0,47.0,47.0,-561.0,234.0,-47.0,655.0,-702.0,94.0,328.0,-281.0,-561.0,-561.0,374.0,1123.0,187.0,468.0,-281.0,94.0,374.0,234.0,-328.0,749.0,421.0,-515.0,281.0,328.0,140.0,-94.0,94.0,1310.0,-187.0,140.0,655.0,-234.0,94.0,47.0,187.0,-374.0,-1170.0,-655.0,47.0,94.0,-187.0,-328.0,842.0,1123.0,-655.0,-47.0,47.0,515.0,94.0,94.0,702.0,-281.0,140.0,234.0,-140.0,140.0,-140.0,-234.0,1263.0,-234.0,-421.0,-374.0,-468.0,-655.0,-281.0,-421.0,-749.0,-608.0,-421.0,-468.0,47.0,-234.0,-47.0,234.0,-281.0,-374.0,47.0,-468.0,515.0,94.0,515.0,328.0,702.0,-749.0,608.0,-749.0,468.0,328.0,468.0,234.0,608.0,-608.0,702.0,0.0,561.0,-655.0,655.0,374.0,328.0,-936.0,94.0,-234.0,-561.0,-515.0,-187.0,-936.0,515.0,-515.0,-328.0,-515.0,-795.0,-421.0,-328.0,187.0,-421.0,-47.0,702.0,-1357.0,187.0,328.0,-187.0,328.0,-515.0,795.0,421.0,655.0,608.0,421.0,374.0,795.0,608.0,1029.0,983.0,749.0,234.0,702.0,608.0,-94.0,187.0,1404.0,889.0,842.0,936.0,889.0,655.0,655.0,1217.0,1076.0,328.0,328.0,515.0,749.0,655.0,468.0,328.0,468.0,1029.0,47.0,936.0,749.0,889.0,47.0,561.0,328.0,421.0,749.0,608.0,421.0,1029.0,702.0,702.0,187.0,749.0,749.0,702.0,795.0,374.0,468.0,983.0,-47.0,187.0,-374.0,-94.0,515.0,561.0,561.0,328.0,2106.0,749.0,374.0,281.0,94.0,47.0,-421.0,-94.0,-47.0,187.0,328.0,468.0,94.0,94.0,-187.0,-140.0,936.0,187.0,328.0,749.0,655.0,234.0,-187.0,140.0,561.0,1357.0,608.0,561.0,187.0,234.0,-234.0,749.0,328.0,374.0,421.0,-94.0,-374.0,-374.0,-889.0,-561.0,515.0,-140.0,-889.0,-1404.0,-1263.0,-140.0,-328.0,-1451.0,281.0,-47.0,-702.0,-1404.0,-795.0,0.0,-1404.0,2199.0,-94.0,-94.0,-795.0,-1544.0,-842.0,1123.0,2386.0,2433.0,0.0,0.0,0.0,0.0,0.0,0.0,0.0,0.0,-2527.0,187.0,889.0,702.0,983.0,1170.0,983.0,1076.0,0.0,-328.0,-94.0,-47.0,468.0,983.0,234.0,-187.0,-983.0,936.0,515.0,-281.0,-140.0,-515.0,374.0,421.0,-140.0,-47.0,702.0,421.0,187.0,328.0,468.0,374.0,-1029.0,281.0,187.0,561.0,-47.0,281.0,187.0,281.0,-328.0,140.0,-421.0,889.0,-187.0,281.0,-47.0,-234.0,0.0,0.0,0.0,0.0,0.0,0.0,0.0,0.0,-655.0,-702.0,-1451.0,749.0,936.0,-1591.0,-608.0,-655.0,-1310.0,-94.0,936.0,1076.0,1684.0,-1451.0,-1965.0,-94.0,1076.0,421.0,1263.0,702.0,47.0,1310.0,1123.0,1217.0,-561.0,1029.0,983.0,655.0,608.0,94.0,94.0,795.0,-1123.0,1310.0,795.0,234.0,140.0,515.0,94.0,-608.0,-374.0,328.0,468.0,655.0,421.0,468.0,515.0,-328.0,-140.0,-1591.0,515.0,187.0,94.0,-702.0,-47.0,561.0,281.0,702.0,655.0,-328.0,374.0,561.0,94.0,-608.0,2480.0,-795.0,1263.0,1170.0,1263.0,655.0,515.0,281.0,-1544.0,889.0,1263.0,47.0,1684.0,795.0,1357.0,-2480.0,234.0,936.0,1404.0,1263.0,561.0,1451.0,1638.0,1170.0,983.0,842.0,1638.0,795.0,1076.0,1076.0,983.0,655.0,328.0,1497.0,281.0,1217.0,1123.0,1029.0,1404.0,515.0,1404.0,702.0,1029.0,842.0,795.0,795.0,889.0,936.0,468.0,983.0,983.0,936.0,655.0,374.0,515.0,234.0,608.0,515.0,842.0,795.0,-187.0,655.0,374.0,1029.0,1404.0,1076.0,1076.0,983.0,842.0,1357.0,1170.0,1217.0,1310.0,842.0,1310.0,1310.0,1451.0,1123.0,936.0,1217.0,1731.0,936.0,1310.0,842.0,842.0,94.0,1170.0,561.0,1591.0,561.0,1170.0,749.0,889.0,234.0,1029.0,1544.0,2106.0,561.0,1357.0,281.0,608.0,749.0,281.0,702.0,1544.0,1310.0,94.0,515.0,468.0,140.0,889.0,1076.0,1825.0,608.0,1029.0,515.0,421.0,702.0,421.0,-187.0,1170.0,468.0,749.0,468.0,515.0,140.0,281.0,-140.0,655.0,1918.0,2059.0,1684.0,2059.0,1404.0,655.0,2012.0,1123.0,-421.0,1217.0,94.0,468.0,2012.0,1404.0,1123.0,1731.0,1684.0,2386.0,1404.0,1029.0,1918.0,842.0,1357.0,1310.0,1263.0,1965.0,1825.0,1731.0,1918.0,1918.0,1825.0,1544.0,1029.0,2106.0,1731.0,1684.0,1544.0,1497.0,1684.0,1684.0,1497.0,1544.0,1731.0,1591.0,1591.0,1217.0,1731.0,1684.0,1638.0,1404.0,1591.0,1497.0,1451.0,1591.0,1684.0,1310.0,1591.0,983.0,1684.0,1497.0,1965.0,1404.0,1404.0,1451.0,1591.0,2106.0,1310.0,749.0,1263.0,1029.0,1497.0,1451.0,2059.0,1357.0,983.0,1123.0,1404.0,983.0,1029.0,1591.0,1918.0,1497.0,983.0,1451.0,1076.0,983.0,1404.0,1310.0,1357.0,702.0,608.0,936.0,1123.0,515.0,234.0,47.0,936.0,515.0,795.0,889.0,795.0,889.0,842.0,-187.0,983.0,702.0,561.0,234.0,-94.0,140.0,187.0,-1451.0,374.0,140.0,-187.0,-140.0,-421.0,374.0,0.0,-1357.0,-936.0,515.0,-515.0,-47.0,234.0,140.0,0.0,0.0,0.0,0.0,0.0,0.0,0.0,0.0,0.0,47.0,-140.0,-140.0,-94.0,0.0,374.0,-140.0,468.0,0.0,-47.0,-140.0,-47.0,0.0,94.0,655.0,-47.0,47.0,-94.0,-47.0,-47.0,-94.0,94.0,94.0,281.0,47.0,94.0,94.0,47.0,0.0,-140.0,187.0,47.0,140.0,94.0,47.0,187.0,-187.0,0.0,234.0,234.0,281.0,140.0,421.0,140.0,-140.0,-561.0,-655.0,-328.0,0.0,0.0,0.0,0.0,0.0,0.0,0.0,0.0,234.0,47.0,47.0,140.0,47.0,187.0,328.0,515.0,281.0,328.0,187.0,140.0,94.0,-47.0,328.0,-94.0,187.0,140.0,0.0,234.0,-94.0,140.0,140.0,421.0,140.0,94.0,140.0,47.0,94.0,234.0,-47.0,47.0,234.0,140.0,187.0,187.0,94.0,-94.0,281.0,-94.0,234.0,-47.0,421.0,94.0,328.0,47.0,234.0,-94.0,328.0,47.0,281.0,281.0,234.0,94.0,-94.0,187.0,140.0,655.0,140.0,374.0,-140.0,-936.0,140.0,515.0,94.0,374.0,-47.0,374.0,0.0,468.0,281.0,655.0,515.0,-140.0,281.0,-47.0,468.0,-47.0,515.0,-281.0,0.0,421.0,47.0,374.0,-47.0,421.0,0.0,421.0,468.0,-94.0,374.0,0.0,374.0,-47.0,234.0,-1076.0,47.0,421.0,0.0,421.0,-94.0,234.0,-140.0,374.0,281.0,47.0,281.0,-94.0,281.0,-281.0,281.0,-94.0,140.0,328.0,94.0,374.0,-187.0,281.0,-328.0,281.0,234.0,-468.0,328.0,-140.0,468.0,-468.0,281.0,0.0,421.0,515.0,421.0,468.0,421.0,421.0,281.0,468.0,515.0,515.0,468.0,468.0,561.0,468.0,374.0,328.0,421.0,608.0,421.0,561.0,468.0,561.0,561.0,421.0,515.0,374.0,515.0,468.0,421.0,608.0,468.0,702.0,281.0,515.0,374.0,468.0,328.0,468.0,515.0,328.0,328.0,421.0,468.0,281.0,468.0,281.0,328.0,281.0,374.0,421.0,561.0,515.0,515.0,421.0,281.0,421.0,468.0,421.0,421.0,561.0,561.0,561.0,328.0,234.0,421.0,515.0,468.0,515.0,374.0,468.0,374.0,468.0,561.0,374.0,561.0,468.0,515.0,328.0,468.0,-889.0,608.0,608.0,515.0,515.0,374.0,468.0,-140.0,281.0,655.0,561.0,515.0,328.0,561.0,328.0,328.0,281.0,374.0,608.0,421.0,468.0,281.0,515.0,328.0,374.0,468.0,140.0,421.0,328.0,421.0,281.0,468.0,187.0,328.0,421.0,187.0,421.0,-187.0,328.0,374.0,749.0,561.0,281.0,515.0,468.0,374.0,234.0,468.0,468.0,-795.0,-1076.0,-1638.0,-2573.0,94.0,328.0,328.0,374.0,-140.0,-842.0,-561.0,-1918.0,-234.0,94.0,328.0,374.0,-1076.0,-374.0,-1029.0,-374.0,-421.0,-140.0,-187.0,234.0,-328.0,-655.0,-374.0,-281.0,-515.0,-655.0,-468.0,140.0,-749.0,-608.0,-234.0,-140.0,-281.0,-421.0,-187.0,-94.0,-515.0,-94.0,-468.0,-374.0,-281.0,-47.0,-234.0,234.0,187.0,0.0,-187.0,-94.0,-94.0,-328.0,-187.0,234.0,-47.0,328.0,-328.0,328.0,281.0,94.0,140.0,281.0,0.0,0.0,0.0,0.0,0.0,0.0,0.0,0.0,187.0,-374.0,-702.0,-374.0,-889.0,515.0,1076.0,47.0,94.0,-94.0,-47.0,-281.0,140.0,-702.0,281.0,-749.0,-94.0,-47.0,-140.0,-94.0,-140.0,-281.0,-281.0,-936.0,-140.0,-47.0,-140.0,-187.0,-281.0,-140.0,-374.0,-94.0,-47.0,-94.0,-47.0,-94.0,-47.0,-140.0,-140.0,-94.0,0.0,0.0,0.0,-140.0,-94.0,-328.0,0.0,-47.0,0.0,0.0,0.0,0.0,0.0,0.0,0.0,0.0,-47.0,94.0,0.0,-421.0,-608.0,47.0,-187.0,1778.0,-47.0,0.0,-140.0,94.0,234.0,-1123.0,94.0,-421.0,0.0,-234.0,-187.0,-94.0,-608.0,-47.0,-515.0,187.0,94.0,-94.0,47.0,-94.0,-187.0,-421.0,-140.0,-515.0,0.0,-94.0,0.0,-234.0,-94.0,-94.0,-94.0,374.0,-187.0,-140.0,-234.0,-140.0,-140.0,-281.0,47.0,-515.0,0.0,-328.0,-47.0,-234.0,-140.0,-234.0,234.0,-374.0,234.0,-140.0,-187.0,-234.0,-94.0,-281.0,-374.0,281.0,328.0,-608.0,608.0,-702.0,140.0,-795.0,374.0,-281.0,-468.0,187.0,-655.0,561.0,-468.0,515.0,-795.0,1029.0,187.0,-515.0,234.0,-561.0,655.0,-608.0,561.0,-749.0,-655.0,374.0,-655.0,234.0,-795.0,561.0,-795.0,468.0,328.0,-468.0,234.0,-749.0,374.0,-655.0,468.0,-795.0,-468.0,187.0,-561.0,234.0,-749.0,94.0,-468.0,328.0,187.0,-515.0,421.0,-702.0,140.0,-842.0,140.0,-842.0,-608.0,608.0,-795.0,281.0,-608.0,234.0,-842.0,0.0,0.0,-94.0,-47.0,-234.0,140.0,140.0,-1825.0,-795.0,-94.0,-234.0,-234.0,-187.0,-94.0,-468.0,-749.0,-1123.0,-47.0,-94.0,-140.0,0.0,94.0,328.0,0.0,655.0,-47.0,0.0,-140.0,-187.0,-94.0,-374.0,328.0,-94.0,-281.0,-140.0,-187.0,-140.0,-94.0,-94.0,94.0,-94.0,-140.0,-234.0,-187.0,-187.0,-234.0,-140.0,0.0,-140.0,-94.0,-140.0,-234.0,-234.0,-187.0,-140.0,-94.0,47.0,-234.0,-140.0,-234.0,-234.0,-187.0,-234.0,-47.0,-187.0,0.0,-94.0,-47.0,-140.0,281.0,-1029.0,187.0,-842.0,-94.0,-94.0,-94.0,-47.0,-140.0,-94.0,-842.0,-140.0,47.0,-47.0,47.0,-234.0,281.0,-47.0,-187.0,-94.0,-47.0,0.0,-47.0,47.0,-281.0,47.0,281.0,-187.0,0.0,-187.0,-47.0,-187.0,140.0,-140.0,0.0,-94.0,-140.0,-94.0,-234.0,-47.0,-140.0,-94.0,-140.0,140.0,94.0,-140.0,-94.0,-187.0,-140.0,-187.0,-234.0,140.0,-94.0,-94.0,-140.0,-140.0,-187.0,-94.0,-94.0,-187.0,-94.0,468.0,608.0,936.0,842.0,749.0,561.0,795.0,47.0,234.0,515.0,515.0,655.0,-468.0,421.0,842.0,-328.0,-187.0,328.0,515.0,749.0,421.0,421.0,468.0,140.0,234.0,374.0,468.0,608.0,281.0,421.0,328.0,374.0,561.0,328.0,468.0,655.0,468.0,328.0,328.0,374.0,468.0,374.0,234.0,328.0,328.0,187.0,187.0,234.0,281.0,281.0,281.0,281.0,234.0,187.0,187.0,187.0,140.0,140.0,281.0,328.0,328.0,281.0,281.0,0.0,0.0,0.0,0.0,0.0,0.0,0.0,0.0,47.0,-140.0,-608.0,515.0,1170.0,140.0,-468.0,-234.0,-47.0,234.0,468.0,-187.0,515.0,749.0,-421.0,-234.0,94.0,187.0,140.0,421.0,-421.0,-140.0,187.0,140.0,374.0,234.0,374.0,-140.0,234.0,-94.0,608.0,-94.0,140.0,374.0,983.0,47.0,47.0,374.0,515.0,655.0,234.0,983.0,515.0,374.0,936.0,1029.0,1731.0,-281.0,0.0,0.0,0.0,0.0,0.0,0.0,0.0,0.0,1965.0,-47.0,-374.0,281.0,-47.0,328.0,-374.0,94.0,281.0,-187.0,702.0,140.0,655.0,234.0,140.0,-468.0,515.0,0.0,608.0,-234.0,187.0,281.0,515.0,-421.0,421.0,468.0,47.0,795.0,421.0,421.0,1217.0,-140.0,-47.0,655.0,749.0,655.0,1404.0,655.0,842.0,702.0,468.0,795.0,1217.0,889.0,655.0,234.0,515.0,1451.0,94.0,1170.0,1170.0,608.0,1357.0,1310.0,328.0,1217.0,1263.0,1778.0,1451.0,187.0,702.0,1263.0,795.0,1310.0,-608.0,2199.0,468.0,1263.0,842.0,-468.0,-328.0,-749.0,1404.0,421.0,1544.0,468.0,936.0,561.0,-515.0,1170.0,889.0,1217.0,1123.0,1451.0,140.0,702.0,1076.0,94.0,795.0,983.0,1076.0,1076.0,889.0,515.0,1217.0,889.0,702.0,561.0,842.0,